791 200
the 0.033729658 0.039513152 0.054912355 0.03442562 0.18579377 0.04167098 -0.20655255 -0.253276 -0.17673561 0.1543946 -0.102009 0.5834804 0.08534271 -0.23702034 -0.09089039 0.17644624 -0.1472511 -0.028005438 -0.016684135 0.2952337 -0.3449995 0.0551466 -0.5893458 -0.023046304 0.14766783 0.058028337 -0.09669292 -0.083864875 -0.21214396 -0.3939518 -0.015921231 -0.2902252 -0.10608087 -0.03366652 -0.07643188 0.20767543 -0.43043995 -0.23517661 -0.09088871 -0.16368088 0.32613936 0.044178996 -0.074427985 -0.0690807 -0.013825883 0.19265 -0.11720972 0.19333772 0.39597344 -0.18552427 0.007350795 -0.026199084 -0.08083134 -0.3431418 -0.38933066 -0.01864676 -0.14062308 0.38896206 -0.115657724 0.21479322 0.34449336 0.35469368 -0.1076849 -0.38635296 0.20896244 -0.11507187 -0.23578359 -0.016724117 -0.44392928 -0.13711542 0.27787894 0.22360623 0.028463362 -0.17351188 0.1914925 0.15498851 0.082944475 -0.025464078 0.09221103 0.18668686 0.22240908 0.050612208 -0.15868866 -0.07326392 0.31213373 -0.03352497 -0.19117428 0.2492559 -0.45949715 -0.03615923 0.30275965 0.35110915 -0.10874592 -0.094419554 0.07534966 0.052048724 -0.0035544857 0.09746902 0.31564358 0.32823378 0.42145637 -0.26844528 0.113401376 -0.046999738 0.36488497 0.09457508 -0.22703038 -0.14644928 -0.1266475 0.329364 0.039689675 0.45904934 -0.014706532 0.4457999 -0.08118813 0.08768112 -0.19645041 -0.03306734 -0.23424332 0.3537756 0.44494742 -0.031156367 -0.19486849 0.16265239 -0.33451873 0.21968755 -0.419611 -0.14347178 -0.16386145 0.14449905 -0.097596705 0.32788545 0.3513699 -0.021959469 0.10502268 0.07890863 -0.026885018 -0.027409215 0.017979253 -0.6765288 0.13126175 -0.030027885 -0.22103353 -0.18266566 -0.23244202 -0.09904326 0.43208852 0.28833297 0.1835443 -0.08181664 -0.040884696 -0.418617 0.2794096 0.013113297 0.11120068 0.061208267 -0.09034198 0.15995401 0.5072393 -0.14599244 0.0035685662 -0.2741834 0.016716642 0.10427669 0.15052786 -0.3718995 0.19428979 -0.06241361 0.55144286 0.07346937 -0.24474157 0.05265724 0.12889737 0.36233273 0.17289023 0.14051278 0.44061524 0.099709675 -0.49582943 0.28304285 -0.107151605 0.11523178 0.102689795 0.039778486 -0.19997376 -0.23476563 -0.41540307 0.0011399804 0.043580726 -0.21287674 0.04462004 0.47484583 -0.4289232 0.30925477 -0.22545205 0.1787351 0.15550014 -0.071391605 -0.0992572 0.069647685
of 0.03268762 0.041697044 0.061310522 0.037394054 0.20034729 0.046474587 -0.21731171 -0.2688571 -0.18743257 0.16570368 -0.10797151 0.63145787 0.093626104 -0.2582098 -0.09807831 0.19402725 -0.1580379 -0.03462154 -0.01654239 0.31872234 -0.3760168 0.06316194 -0.6326974 -0.01942153 0.1554589 0.0660614 -0.09968351 -0.085477084 -0.22795787 -0.42360988 -0.016891537 -0.31014854 -0.11501322 -0.03429221 -0.0795463 0.22229274 -0.45678565 -0.2470925 -0.10037621 -0.17727634 0.3507855 0.04749574 -0.080078594 -0.07325391 -0.014550372 0.21384498 -0.12491433 0.21096283 0.42858958 -0.19977324 0.0045571486 -0.027193869 -0.08960417 -0.37605846 -0.42270857 -0.022928169 -0.15390724 0.41618422 -0.123188 0.23494138 0.37012124 0.38264504 -0.11410544 -0.41479865 0.22617798 -0.123377 -0.25515208 -0.019828575 -0.47946224 -0.15073274 0.29390988 0.24304618 0.027373094 -0.19050102 0.20880088 0.17217302 0.089579746 -0.02876675 0.09700612 0.19923659 0.23997618 0.05858283 -0.1753669 -0.082576774 0.3361394 -0.034899537 -0.20746249 0.2666322 -0.49459904 -0.0408856 0.32619005 0.38029015 -0.115630195 -0.10385261 0.07959278 0.055379108 -0.0021814194 0.10418062 0.34460783 0.35666707 0.46474648 -0.29097027 0.120947346 -0.05146278 0.39668867 0.10426766 -0.2475839 -0.1612329 -0.14201587 0.35891286 0.041435376 0.5023719 -0.018016879 0.4832007 -0.08663195 0.09458653 -0.21224159 -0.035897803 -0.25469163 0.38381636 0.48224998 -0.033471175 -0.20994829 0.17909038 -0.36552486 0.23907666 -0.45391765 -0.1581602 -0.17594063 0.1614533 -0.106407166 0.35590515 0.38193986 -0.025173396 0.11307787 0.08917771 -0.027622707 -0.030125711 0.02019555 -0.7306416 0.14373074 -0.029508939 -0.24150592 -0.20259458 -0.24918813 -0.10291425 0.4656232 0.3194532 0.20008992 -0.08834143 -0.047818083 -0.45707303 0.3008739 0.016932908 0.12260178 0.070100896 -0.09432615 0.17689864 0.55236554 -0.15991616 0.004581894 -0.30035812 0.016893994 0.11292988 0.16660692 -0.40545326 0.21517435 -0.06752992 0.5968724 0.08101729 -0.2652459 0.06177506 0.13772377 0.38881797 0.18927716 0.15244031 0.4750421 0.10674591 -0.53681684 0.31093085 -0.1153579 0.12827972 0.11365462 0.044638604 -0.21813078 -0.25380597 -0.44864553 0.0011164172 0.0491009 -0.22728996 0.04601108 0.5103904 -0.46628395 0.33919442 -0.24371456 0.19609343 0.17082916 -0.080587655 -0.10556342 0.070849575
in 0.030288942 0.04306744 0.05813808 0.042252004 0.19347526 0.048131227 -0.21041743 -0.2605917 -0.1844679 0.16456714 -0.107474774 0.61300385 0.09013571 -0.24365711 -0.09406582 0.18721573 -0.15906051 -0.028811973 -0.014298247 0.30776283 -0.3610257 0.06002674 -0.6143367 -0.018211273 0.15240093 0.05807689 -0.10134383 -0.083223976 -0.22488049 -0.40983284 -0.020343889 -0.3011228 -0.11031791 -0.040873133 -0.078504734 0.21950269 -0.44339335 -0.24293055 -0.09894148 -0.17359693 0.33912945 0.040386025 -0.076487854 -0.06625613 -0.012519304 0.2054194 -0.11989108 0.20253104 0.41389757 -0.18902187 0.0055995057 -0.029605154 -0.08132834 -0.36130574 -0.4059735 -0.02620908 -0.14665407 0.40377873 -0.119088136 0.22898495 0.3597166 0.37696114 -0.109542646 -0.40015462 0.2243534 -0.117761984 -0.2467744 -0.012618189 -0.46435186 -0.15114614 0.28814167 0.24230187 0.02659135 -0.1885323 0.19976999 0.16962995 0.09018313 -0.029312266 0.09944848 0.18744963 0.22966592 0.056236144 -0.17067057 -0.07977167 0.32466698 -0.037554737 -0.19933203 0.2601703 -0.47639337 -0.038363364 0.31959867 0.36852807 -0.10626658 -0.09903187 0.071993686 0.049648132 -0.0011282163 0.099182025 0.33637062 0.3444479 0.45023894 -0.28125742 0.12010162 -0.051985137 0.38121957 0.09906423 -0.24223949 -0.15559903 -0.13452074 0.3460526 0.034098227 0.48521504 -0.017273452 0.46595928 -0.08211972 0.090983525 -0.19908006 -0.03371697 -0.24057034 0.3706454 0.46275327 -0.03395864 -0.20108518 0.1801106 -0.34909788 0.22883378 -0.4422604 -0.14655644 -0.17794438 0.15692419 -0.10312771 0.33745548 0.36354655 -0.021765053 0.113098964 0.08295053 -0.023823595 -0.032910973 0.018762799 -0.70619047 0.13816299 -0.026028592 -0.23317389 -0.1934243 -0.24787956 -0.10734535 0.45403084 0.30525136 0.18905579 -0.084813155 -0.04059088 -0.43752965 0.2865387 0.01476869 0.11525465 0.064601 -0.09307439 0.17101946 0.5347544 -0.15446764 -0.00064886385 -0.2890233 0.020200532 0.11034545 0.15996616 -0.38870353 0.20523773 -0.06327354 0.57699347 0.07969316 -0.25402793 0.058777854 0.13199933 0.37690642 0.18098238 0.14890082 0.4571969 0.10402857 -0.5146635 0.29912907 -0.1166717 0.12616844 0.10674153 0.040978137 -0.20851678 -0.24289253 -0.4305356 0.0020588522 0.047235932 -0.2203261 0.048649773 0.4953055 -0.45011884 0.32243893 -0.23691982 0.1833476 0.16759104 -0.078761175 -0.10367121 0.0681924
and 0.033808615 0.039569777 0.060859505 0.041558906 0.19916824 0.04500642 -0.21576466 -0.26446223 -0.18577437 0.1640602 -0.10641914 0.61567384 0.09041444 -0.24899346 -0.0954712 0.18904226 -0.15629084 -0.029568281 -0.016544571 0.3112231 -0.36439088 0.062284797 -0.62051004 -0.02235602 0.15672389 0.058982518 -0.102231085 -0.08602709 -0.22442326 -0.4136813 -0.02263399 -0.30652723 -0.10920746 -0.03414901 -0.08128722 0.2239462 -0.4518079 -0.24674296 -0.09797911 -0.17706954 0.34032857 0.042419992 -0.07867169 -0.06849551 -0.012759978 0.20790885 -0.12312931 0.20436294 0.42450637 -0.19348913 0.004748246 -0.026462268 -0.08349649 -0.366722 -0.41665897 -0.021051846 -0.15056705 0.41241458 -0.11833313 0.23255536 0.36801362 0.3810387 -0.11121891 -0.40561825 0.22320218 -0.11834429 -0.25233215 -0.013950342 -0.46810538 -0.15005927 0.29491574 0.24042723 0.029112402 -0.18582813 0.19862819 0.16926378 0.08828946 -0.027524607 0.098243445 0.1976026 0.23593599 0.053440537 -0.17497198 -0.0785346 0.33277574 -0.039499737 -0.2070632 0.26067275 -0.48434025 -0.03646374 0.32401785 0.37531406 -0.11373869 -0.09967194 0.075465016 0.056042463 -0.0024856527 0.10256501 0.33808452 0.34825638 0.4520848 -0.28396472 0.12077173 -0.048658576 0.38782787 0.10059576 -0.2394426 -0.15085325 -0.13991791 0.3484127 0.041821763 0.49075127 -0.020051675 0.46923122 -0.086485304 0.09484022 -0.20520362 -0.031300403 -0.24262446 0.37581202 0.47239843 -0.033985257 -0.20579034 0.17942192 -0.35881293 0.22859198 -0.4409668 -0.15399812 -0.17214558 0.15846008 -0.1076426 0.34664765 0.37187386 -0.022680784 0.11671945 0.087214135 -0.02607624 -0.031890698 0.014840017 -0.7164754 0.13610439 -0.03249188 -0.23449469 -0.19652303 -0.24370325 -0.102333486 0.45594016 0.31334972 0.19242875 -0.087182544 -0.04612061 -0.44180682 0.29358295 0.013075473 0.11846384 0.06476812 -0.090108015 0.16926359 0.5407587 -0.15799515 0.0008771936 -0.29378447 0.018010842 0.109552145 0.15972556 -0.39343622 0.2137227 -0.06250244 0.5842531 0.08209197 -0.2584178 0.05667061 0.13124247 0.38399357 0.18731147 0.15058987 0.46605173 0.10625401 -0.5213101 0.30452108 -0.118545316 0.12669678 0.10932777 0.039303705 -0.21319892 -0.2475766 -0.43592024 -0.00061510294 0.04675128 -0.22462316 0.04959681 0.4989219 -0.45517495 0.33000004 -0.23635533 0.19295058 0.16321146 -0.078950375 -0.106629446 0.07167851
to 0.032547906 0.04321997 0.058624577 0.039664265 0.19258823 0.04915861 -0.20937942 -0.26033333 -0.18370599 0.16174681 -0.1027045 0.60750884 0.0876844 -0.24229696 -0.09007846 0.18129875 -0.1522225 -0.033959955 -0.012094673 0.30618516 -0.35880822 0.06335268 -0.61142135 -0.018883273 0.15468562 0.059766892 -0.09752519 -0.08348714 -0.22211419 -0.4061056 -0.019400664 -0.30309168 -0.105836 -0.033421878 -0.07866742 0.22042952 -0.44028336 -0.24188757 -0.0972878 -0.1743307 0.3329157 0.04096206 -0.078302436 -0.0651942 -0.013135003 0.20312533 -0.11834941 0.19867502 0.41329855 -0.19152638 0.0044620666 -0.028699331 -0.08592744 -0.35890538 -0.40771234 -0.022738954 -0.14058463 0.40436774 -0.12018692 0.22863872 0.36279434 0.3699084 -0.11004884 -0.39701778 0.21651381 -0.11727423 -0.24215002 -0.014219681 -0.46071175 -0.1472275 0.28571564 0.24065624 0.025288964 -0.1803518 0.19806656 0.16847132 0.08260213 -0.028721934 0.10017166 0.18744712 0.22887263 0.05749718 -0.16634656 -0.07902532 0.32333234 -0.037731666 -0.20100251 0.2612139 -0.4735919 -0.037635088 0.31791875 0.36465767 -0.1080118 -0.095642194 0.07108091 0.05557999 -0.0051204264 0.09742268 0.33019748 0.3453003 0.44732445 -0.28038803 0.12170651 -0.053099565 0.38036793 0.10186188 -0.2365488 -0.15248764 -0.1366292 0.34277046 0.04082738 0.47631848 -0.014938689 0.46282613 -0.084433965 0.08725113 -0.20058647 -0.028745105 -0.23881586 0.37149397 0.46427727 -0.0296908 -0.20143223 0.17448215 -0.35093707 0.22859347 -0.43617493 -0.1469689 -0.1731175 0.15090843 -0.101184115 0.34060502 0.36251143 -0.021258036 0.114966035 0.087943204 -0.020724915 -0.03283575 0.0150122205 -0.70147955 0.13497698 -0.03023628 -0.23306812 -0.19183652 -0.24185373 -0.10176229 0.4535163 0.30459306 0.18942152 -0.08660843 -0.04237752 -0.43521717 0.29187223 0.0104426555 0.11461057 0.06283246 -0.08966563 0.17102662 0.5323806 -0.15521681 -0.00039397355 -0.28989568 0.019299688 0.10642921 0.16212653 -0.39032948 0.20994711 -0.06434446 0.5732051 0.08276562 -0.25389203 0.060654193 0.13168776 0.37461436 0.18252121 0.14732465 0.45457906 0.10384844 -0.5201882 0.2991291 -0.11491526 0.122991405 0.106241144 0.039821945 -0.20669372 -0.24036942 -0.43056995 0.0022117049 0.047370702 -0.21859024 0.04434992 0.49237546 -0.4438538 0.3216847 -0.23465917 0.18562654 0.16500773 -0.07190007 -0.103046544 0.07005718
a 0.037995037 0.043843377 0.06395963 0.046596512 0.20765232 0.04949911 -0.22587186 -0.2792385 -0.19554417 0.17426345 -0.11619651 0.6464476 0.09663803 -0.2629294 -0.09994333 0.1957201 -0.1660088 -0.035678245 -0.019336324 0.32816532 -0.38563147 0.065391146 -0.6507102 -0.022240408 0.16466968 0.06326311 -0.103016436 -0.08905843 -0.23927575 -0.43508586 -0.022588821 -0.32334206 -0.117962375 -0.041257825 -0.082735926 0.23107281 -0.46844092 -0.25345066 -0.10367544 -0.18348771 0.35987124 0.04289135 -0.081181675 -0.07370445 -0.011707419 0.21355736 -0.12585331 0.21562846 0.44130665 -0.20191053 0.0007535523 -0.029104168 -0.09040592 -0.3817702 -0.42902565 -0.023945471 -0.15037975 0.4311121 -0.1270045 0.23924282 0.3815376 0.39814913 -0.119341925 -0.42694724 0.23412356 -0.12638687 -0.26181495 -0.014216477 -0.49192193 -0.15950663 0.3087379 0.25394174 0.026926197 -0.19744702 0.21256976 0.17898723 0.09241469 -0.0292055 0.10796535 0.20196573 0.24162772 0.058186367 -0.17848125 -0.07893884 0.34779334 -0.04126665 -0.20926073 0.27752882 -0.5070019 -0.038589165 0.3388958 0.38941842 -0.11589667 -0.1029864 0.074821524 0.05569607 -0.0022545 0.10517041 0.35918435 0.36440992 0.47367963 -0.299807 0.13155372 -0.051021043 0.4031491 0.106208876 -0.2582587 -0.16482657 -0.14164165 0.3685032 0.039082643 0.51197505 -0.015541925 0.49519375 -0.08928333 0.09910781 -0.2108615 -0.030683419 -0.25545102 0.3906279 0.4949351 -0.03629525 -0.21277711 0.18619417 -0.37496343 0.24515902 -0.46974042 -0.16116062 -0.18640968 0.16523649 -0.110825986 0.35887977 0.39193982 -0.021755708 0.12015072 0.091906935 -0.026217882 -0.0343745 0.01924047 -0.75011265 0.14368425 -0.03208156 -0.24439149 -0.20462836 -0.26140118 -0.10924372 0.47878298 0.3258392 0.20239796 -0.09000059 -0.04215159 -0.46638808 0.30472043 0.019203318 0.1205593 0.07046074 -0.097309604 0.1784114 0.56240684 -0.1665676 0.0035937715 -0.30650824 0.017688144 0.113804884 0.1683861 -0.4141647 0.21963315 -0.06536603 0.61211836 0.08830381 -0.2672084 0.06149384 0.13904908 0.4006419 0.1950102 0.15745641 0.48556998 0.10816079 -0.5518675 0.3155525 -0.122008935 0.13569611 0.11246555 0.043860022 -0.22385976 -0.25394604 -0.45559964 0.0058967276 0.051441953 -0.23335604 0.04949341 0.5259531 -0.47517622 0.34478074 -0.24647537 0.1991832 0.1725814 -0.08205056 -0.11194549 0.073767245
was 0.030549238 0.038272176 0.05945788 0.04354463 0.19887228 0.04973891 -0.21107922 -0.2604244 -0.18593244 0.16151386 -0.11246094 0.61302024 0.08933713 -0.24546441 -0.09007766 0.18251033 -0.15716259 -0.03271109 -0.01646017 0.30608162 -0.357846 0.058314525 -0.6147892 -0.02169333 0.1552403 0.06125716 -0.10278495 -0.082337834 -0.22592613 -0.40666306 -0.020074347 -0.30182424 -0.105545826 -0.042899314 -0.07838721 0.21831642 -0.44408143 -0.24363428 -0.09697276 -0.17717454 0.34053716 0.03837549 -0.07531781 -0.06968432 -0.014606257 0.20116226 -0.11582056 0.1985194 0.41138348 -0.18661585 0.0058771474 -0.031776328 -0.08170261 -0.35419214 -0.40502092 -0.026167996 -0.14489973 0.40208945 -0.119794235 0.22750233 0.36216083 0.37490606 -0.108531326 -0.39881793 0.2248352 -0.11303875 -0.24524002 -0.0146597875 -0.46211758 -0.15004507 0.28625193 0.24357504 0.02773164 -0.19074604 0.19474453 0.16859421 0.088089675 -0.027846215 0.09919707 0.1909965 0.22594666 0.054470457 -0.16854273 -0.07564913 0.32685673 -0.03778768 -0.1968713 0.25850874 -0.4734722 -0.03897322 0.31279376 0.36469775 -0.10445986 -0.09449198 0.071545556 0.046695486 -0.0035887798 0.097346805 0.33589998 0.34088272 0.44531998 -0.27578977 0.11939447 -0.05090496 0.38037702 0.09888954 -0.23846576 -0.15302312 -0.12883961 0.34439728 0.036564916 0.479356 -0.019715497 0.46276167 -0.08721885 0.08789036 -0.19596468 -0.031989526 -0.23730797 0.36885467 0.46172047 -0.03257666 -0.20223254 0.17909898 -0.34851363 0.22810306 -0.44252425 -0.14925872 -0.17687503 0.15441011 -0.1042411 0.33984318 0.36309636 -0.023459177 0.10859043 0.08506296 -0.021966496 -0.035193786 0.016640197 -0.70332724 0.13713537 -0.029811474 -0.23078512 -0.19394922 -0.24716602 -0.10845302 0.44901106 0.30419356 0.1875015 -0.08103643 -0.039151743 -0.43378556 0.28236747 0.017728094 0.11101832 0.06724041 -0.09135162 0.16960335 0.5319149 -0.15760489 0.0030714262 -0.284331 0.015354939 0.10509306 0.16202064 -0.38754466 0.20606297 -0.06543045 0.5745333 0.08100013 -0.25102043 0.060324647 0.13335681 0.37020513 0.1825805 0.15194151 0.45572007 0.101829514 -0.5127356 0.29428002 -0.11988225 0.12466206 0.103370234 0.042466816 -0.20910956 -0.23947851 -0.4283899 0.0008605473 0.05178521 -0.22112273 0.049038067 0.49620774 -0.44922498 0.32091025 -0.23310016 0.18276538 0.1643992 -0.07627999 -0.10455696 0.07019608
on 0.035480436 0.043938287 0.06133065 0.042903863 0.20035973 0.05021733 -0.21967703 -0.27154905 -0.19304925 0.1674685 -0.11259662 0.6399396 0.09097259 -0.25634778 -0.09384751 0.19144641 -0.1619838 -0.03456854 -0.015685124 0.3219681 -0.3788054 0.06636029 -0.6381631 -0.023121694 0.16406804 0.06357077 -0.10460619 -0.08575837 -0.2350862 -0.4270149 -0.021402167 -0.31271744 -0.10897098 -0.042159863 -0.0835314 0.22888729 -0.46267912 -0.24790093 -0.10004727 -0.18331307 0.34866133 0.04332514 -0.08085426 -0.07051413 -0.012176748 0.2094192 -0.12445222 0.20834455 0.4322086 -0.19851172 0.000598987 -0.03256928 -0.08449196 -0.3739543 -0.4201452 -0.02735843 -0.14690864 0.4165198 -0.123972364 0.23368499 0.3788741 0.38723645 -0.11330971 -0.41828424 0.22759026 -0.1227913 -0.25592285 -0.014160778 -0.48241398 -0.15491003 0.3016587 0.25248373 0.028603105 -0.1930833 0.20338264 0.17717381 0.09367253 -0.030862879 0.1023274 0.19261752 0.23640124 0.06274381 -0.17155421 -0.08112285 0.3390928 -0.041933235 -0.20288923 0.27026168 -0.49686557 -0.040065795 0.33265156 0.38067332 -0.11270762 -0.101487204 0.07411633 0.05482116 0.00019400459 0.10416048 0.3507733 0.35536242 0.4631274 -0.29012936 0.12789313 -0.049888235 0.3980472 0.103705525 -0.24832101 -0.16076091 -0.13873841 0.3580875 0.04059122 0.4993971 -0.020352514 0.48340836 -0.08707389 0.09614786 -0.20361362 -0.03394472 -0.25012967 0.37987152 0.48373914 -0.031088915 -0.20915072 0.18413611 -0.36511388 0.23972544 -0.45646212 -0.15385744 -0.18074091 0.1612327 -0.10820951 0.34972507 0.37944573 -0.022706259 0.11703726 0.09232814 -0.022758259 -0.031013118 0.017430576 -0.7323184 0.14595447 -0.031415872 -0.24103226 -0.20121719 -0.25147176 -0.11209484 0.4688432 0.3126899 0.19704227 -0.086109415 -0.040946607 -0.4501609 0.2992827 0.014506159 0.11346472 0.069178656 -0.09881005 0.17493059 0.550047 -0.15875871 0.002927456 -0.29859897 0.016321868 0.11181992 0.16302516 -0.40286195 0.21617454 -0.06999934 0.5980995 0.087557994 -0.26482153 0.06190167 0.13501273 0.39251184 0.19156854 0.15906496 0.47378114 0.105492555 -0.5348631 0.30756113 -0.119073905 0.13019188 0.107779406 0.0435777 -0.21732907 -0.25229245 -0.4494915 0.0024748577 0.04920833 -0.22932863 0.045089703 0.51679033 -0.46636927 0.33773327 -0.24303311 0.19082998 0.17295457 -0.07723408 -0.107674204 0.070042685
as 0.03731524 0.045555472 0.06673244 0.042327102 0.21006146 0.04847937 -0.22902592 -0.2816662 -0.19719498 0.17527646 -0.11420455 0.65895474 0.09716528 -0.2672613 -0.09993144 0.20134243 -0.17101814 -0.033088073 -0.016544523 0.3307147 -0.3936956 0.067639776 -0.66492003 -0.018873362 0.16417663 0.064869694 -0.108023636 -0.09151693 -0.24330555 -0.44643977 -0.021949358 -0.32897627 -0.11965444 -0.038693223 -0.08493624 0.237394 -0.4795297 -0.25747317 -0.102759875 -0.18527468 0.3651756 0.042539645 -0.08605175 -0.070258684 -0.014212696 0.22198437 -0.13012038 0.2205273 0.44392207 -0.20343113 0.0058605983 -0.03462458 -0.09273773 -0.3895574 -0.43910378 -0.024929356 -0.1548009 0.4393064 -0.12996589 0.24270085 0.38959068 0.401023 -0.12326919 -0.4307219 0.23760699 -0.12667823 -0.2679689 -0.018497482 -0.49807212 -0.1581843 0.3111433 0.25729042 0.028611945 -0.20167914 0.21414775 0.18126233 0.09429498 -0.031137662 0.107105486 0.20712398 0.24689744 0.064097546 -0.18210436 -0.08158387 0.35176194 -0.03815545 -0.21296842 0.27796146 -0.5145481 -0.042959753 0.34506378 0.39426407 -0.11651241 -0.10446953 0.076905735 0.057370923 -0.004358052 0.109303184 0.36373267 0.36871547 0.48260358 -0.30671042 0.1315013 -0.057422556 0.41329706 0.10510775 -0.25698328 -0.1677919 -0.14458467 0.36877137 0.0392203 0.5200235 -0.015740963 0.50039333 -0.08840604 0.10029712 -0.21534024 -0.03151977 -0.26240832 0.39924896 0.50270456 -0.031026255 -0.21337627 0.19149306 -0.37847838 0.24935235 -0.47473323 -0.16392994 -0.18659316 0.16921745 -0.11544808 0.36840105 0.3951003 -0.024131713 0.12523076 0.08946942 -0.028067682 -0.032792967 0.015632741 -0.7604762 0.1483221 -0.029015867 -0.25148728 -0.21066833 -0.26505327 -0.11216472 0.49022338 0.33113018 0.20675929 -0.087762475 -0.04357399 -0.47544673 0.313375 0.015538316 0.12216533 0.06714639 -0.09695298 0.18202321 0.57314837 -0.16768432 -0.0012765568 -0.3115219 0.019053608 0.11574219 0.17060825 -0.4159617 0.22391295 -0.06612191 0.6206381 0.0870713 -0.27632993 0.06370122 0.13783036 0.409708 0.1945316 0.16336338 0.49441946 0.11282608 -0.55745715 0.32211393 -0.12796697 0.13435926 0.113916285 0.042859647 -0.22663893 -0.25629398 -0.46425083 0.006153166 0.055221993 -0.23774639 0.046955843 0.5297055 -0.48642963 0.3512553 -0.25435698 0.2021717 0.17739344 -0.0819658 -0.11600171 0.07644371
is 0.032838266 0.037192363 0.05857181 0.039232448 0.18196143 0.042577617 -0.20379119 -0.24229454 -0.17271481 0.15177485 -0.097780794 0.574551 0.08167816 -0.23570055 -0.086712964 0.17748976 -0.1474923 -0.032338325 -0.009883198 0.28802264 -0.34210324 0.055227038 -0.5779006 -0.018807247 0.14106505 0.056829847 -0.08955258 -0.08214143 -0.21462089 -0.38811564 -0.013874254 -0.28417054 -0.10309923 -0.028845828 -0.07356531 0.20379052 -0.42182347 -0.2281679 -0.08546201 -0.161713 0.3163913 0.04007813 -0.078788064 -0.06384142 -0.010899449 0.19111094 -0.11748069 0.19015694 0.38641188 -0.17707859 0.004089623 -0.029941639 -0.08057351 -0.344283 -0.38041842 -0.01504719 -0.13802657 0.38338557 -0.10735571 0.21225327 0.3377078 0.34463194 -0.108322516 -0.37444806 0.20412737 -0.11582747 -0.23088972 -0.01770691 -0.4313515 -0.13688162 0.27329013 0.22538361 0.02995513 -0.16739692 0.1883968 0.15552051 0.07817208 -0.023334324 0.08950556 0.17716865 0.21670255 0.05441702 -0.16221544 -0.07205483 0.30598018 -0.034132753 -0.18829782 0.24250467 -0.44612297 -0.037906956 0.29957086 0.3458476 -0.1016854 -0.09249415 0.070814855 0.05606824 -0.00064473087 0.09118826 0.31279144 0.3279147 0.42072332 -0.26383108 0.10981413 -0.048653025 0.35777467 0.09304705 -0.22640963 -0.14443308 -0.12684882 0.32409355 0.036288526 0.44957662 -0.011843104 0.43683344 -0.07917128 0.08454083 -0.19258364 -0.034384776 -0.23194239 0.3533587 0.43448478 -0.029592445 -0.19015986 0.1633067 -0.32954776 0.21529588 -0.40812868 -0.14409705 -0.16255282 0.14292371 -0.09672095 0.32128635 0.34350577 -0.021416405 0.10978064 0.07943539 -0.02129874 -0.02777305 0.017819304 -0.66162646 0.1284239 -0.028527474 -0.21680552 -0.17947036 -0.22338846 -0.090702295 0.42688856 0.2851582 0.17894053 -0.081006356 -0.043012377 -0.41122603 0.27738455 0.009775459 0.10772869 0.059787616 -0.08341252 0.15976958 0.49862233 -0.13886696 -0.00095103926 -0.27159408 0.017067667 0.10194269 0.1507245 -0.3661883 0.19453502 -0.062020503 0.5344528 0.07282248 -0.238635 0.054257847 0.12330469 0.35884866 0.1703138 0.13682857 0.42677486 0.099478215 -0.48542607 0.28275767 -0.103344075 0.11756321 0.10528401 0.04013623 -0.19567434 -0.2286072 -0.40414968 0.00683921 0.044115033 -0.20631832 0.043157306 0.45715913 -0.418767 0.30597085 -0.22180055 0.17438564 0.15270242 -0.068447344 -0.09556194 0.06446929
he 0.031397942 0.037738465 0.05517621 0.03790893 0.18630002 0.047040496 -0.2006291 -0.25131184 -0.17897326 0.15639485 -0.104007706 0.5860111 0.086244285 -0.23468137 -0.08529319 0.17488487 -0.15125534 -0.027665047 -0.017322686 0.29031408 -0.34627542 0.055075217 -0.5808023 -0.018345565 0.14899673 0.056869842 -0.09712407 -0.07511816 -0.21248488 -0.3887834 -0.021420516 -0.28737053 -0.10420845 -0.039522633 -0.07341538 0.20505668 -0.41777897 -0.22752772 -0.092664056 -0.16919903 0.32520398 0.03603451 -0.07370234 -0.065019265 -0.015328845 0.19475107 -0.11327562 0.18942456 0.3948365 -0.18011087 0.00032722022 -0.02735405 -0.07717248 -0.33935684 -0.38158494 -0.026514508 -0.13654721 0.38468376 -0.11676206 0.21808986 0.3432335 0.35591415 -0.10664924 -0.38171595 0.21328446 -0.1092401 -0.23411414 -0.0074414024 -0.444297 -0.1418145 0.2764729 0.23280376 0.021536734 -0.18024515 0.18370098 0.15861702 0.082744114 -0.029260423 0.09764636 0.17930417 0.21557155 0.055809926 -0.1602614 -0.072350025 0.30973753 -0.037997883 -0.18388756 0.24528334 -0.45163292 -0.035647348 0.3008869 0.350748 -0.096642815 -0.091955364 0.07128216 0.04616006 -0.0035038302 0.09748078 0.32270986 0.32375377 0.42739373 -0.26205996 0.1209051 -0.04836035 0.3631548 0.0946552 -0.22561572 -0.14288583 -0.12255337 0.32735583 0.03213927 0.4559203 -0.017709019 0.4421544 -0.07966406 0.08753644 -0.17972645 -0.028862037 -0.22419222 0.34638047 0.44010183 -0.030916965 -0.19248265 0.1742418 -0.33134237 0.21482599 -0.4187155 -0.1395838 -0.16749875 0.14962202 -0.096073724 0.31944343 0.343996 -0.019104451 0.10811494 0.08125348 -0.021203164 -0.03381928 0.014537178 -0.671588 0.129463 -0.025080478 -0.21638907 -0.18466794 -0.23432359 -0.10472301 0.4271587 0.28839082 0.17979659 -0.075910464 -0.035721377 -0.40966728 0.26900846 0.014368532 0.103142336 0.061384108 -0.087040335 0.15846594 0.50580794 -0.15308172 0.0013408398 -0.27720135 0.015321116 0.106090784 0.15691006 -0.36930504 0.19799839 -0.06093286 0.5490479 0.078889795 -0.24008046 0.05530292 0.12303121 0.3559143 0.17160724 0.14825717 0.43339175 0.094237015 -0.48788056 0.28138793 -0.115387425 0.11630997 0.10014628 0.03594216 -0.20194466 -0.22353138 -0.40879092 0.0040843925 0.04667966 -0.21164879 0.041265592 0.4729801 -0.42854205 0.30167872 -0.22552276 0.17200805 0.15953103 -0.071826264 -0.101513155 0.062347353
for 0.034295928 0.04494617 0.06168838 0.044783667 0.20393687 0.05343492 -0.22183432 -0.27769423 -0.19672291 0.17476878 -0.11155085 0.6449711 0.09353627 -0.25957268 -0.09666221 0.1958277 -0.16472147 -0.032616276 -0.017805478 0.3260434 -0.38296556 0.06372917 -0.64422894 -0.019972378 0.16012448 0.06255162 -0.106573164 -0.08854733 -0.23777929 -0.4329266 -0.023245804 -0.31713894 -0.1131856 -0.042429272 -0.0825178 0.22937174 -0.46668163 -0.25094908 -0.09919105 -0.18486936 0.35520482 0.04373838 -0.084215455 -0.07054018 -0.011749436 0.2164051 -0.12435425 0.21360533 0.43635476 -0.19770071 0.0016732826 -0.030702475 -0.088869035 -0.3756122 -0.42686978 -0.024365991 -0.14824906 0.423326 -0.12528124 0.24013413 0.38115948 0.39384118 -0.11934305 -0.42090794 0.23049799 -0.12454312 -0.25619593 -0.0139763495 -0.48637694 -0.1531141 0.30235097 0.2515566 0.027060485 -0.1959356 0.20788193 0.1733737 0.094234996 -0.03197333 0.10388194 0.19536158 0.2421623 0.06251006 -0.17645073 -0.082316004 0.34199446 -0.04071129 -0.20601927 0.27324963 -0.5002602 -0.040570974 0.33331475 0.38402146 -0.1110882 -0.09960117 0.07274218 0.054761436 -0.00064852217 0.104381874 0.35424918 0.36122745 0.46994206 -0.29432333 0.12865044 -0.05325296 0.39929354 0.102630764 -0.25439304 -0.15869246 -0.13944642 0.3613437 0.04066061 0.5061324 -0.019513369 0.48188457 -0.08663185 0.096482545 -0.20429847 -0.030574333 -0.25137675 0.3853482 0.48539373 -0.033828147 -0.21209288 0.18545555 -0.3691236 0.23715042 -0.4598534 -0.15566576 -0.18325178 0.15974844 -0.10914455 0.3575437 0.3822623 -0.022957325 0.117023505 0.09063384 -0.023788502 -0.0351023 0.014546491 -0.7399345 0.14337355 -0.032307126 -0.24104385 -0.20442858 -0.25782722 -0.11057844 0.47418883 0.3205844 0.20140974 -0.0887556 -0.041350823 -0.45615077 0.29924372 0.01819005 0.11563035 0.06535512 -0.093187 0.17677885 0.5592107 -0.1605512 0.0022567103 -0.30541503 0.020495057 0.113975406 0.16919102 -0.4037621 0.21486653 -0.06809848 0.60257745 0.083322205 -0.26473588 0.06305145 0.13453457 0.39277306 0.19271511 0.15839972 0.4815823 0.10734091 -0.54376096 0.3113762 -0.12299244 0.12990862 0.111049294 0.04458004 -0.21924636 -0.25180542 -0.45200238 0.002112321 0.05223134 -0.23080878 0.04864867 0.520067 -0.4702078 0.34175593 -0.24665998 0.19410191 0.17540772 -0.0784791 -0.10752164 0.07222497
with 0.035810262 0.043881595 0.06529734 0.045953568 0.21328314 0.053878117 -0.23531626 -0.29138044 -0.20441154 0.18330447 -0.12200232 0.6803324 0.10139467 -0.27527747 -0.10078285 0.20401591 -0.17421928 -0.03846076 -0.016008742 0.3417069 -0.40167373 0.06834194 -0.6830049 -0.022622606 0.1739138 0.070084974 -0.111937605 -0.09320939 -0.24707817 -0.4571842 -0.020694124 -0.33762488 -0.12263056 -0.04328388 -0.09105071 0.2435302 -0.49513566 -0.27269524 -0.10739926 -0.19506218 0.37449688 0.04897604 -0.09032508 -0.074424334 -0.015955422 0.22670168 -0.13534033 0.22512498 0.46324039 -0.20883936 0.0034204775 -0.03139877 -0.09217651 -0.40224028 -0.45069915 -0.026380163 -0.1623273 0.45080853 -0.130754 0.25530556 0.40579563 0.41737762 -0.12600774 -0.44334924 0.2445857 -0.13373421 -0.2713834 -0.016444467 -0.5124852 -0.16233903 0.32431573 0.26889482 0.02868284 -0.2053915 0.22142044 0.18859139 0.095881805 -0.031828925 0.110817514 0.21240357 0.2559223 0.062060814 -0.19048461 -0.08368894 0.36169904 -0.041161377 -0.22075418 0.2886611 -0.53135246 -0.043506313 0.3521334 0.40906152 -0.119741976 -0.110249266 0.083075 0.058051102 -0.00035257134 0.11224476 0.37362766 0.3822289 0.49852473 -0.31393787 0.13769646 -0.055263497 0.42635328 0.11127047 -0.26641315 -0.16727236 -0.15144604 0.38188073 0.041286282 0.5365441 -0.015323402 0.51398176 -0.095601454 0.09992825 -0.22081712 -0.036045603 -0.2683638 0.41381696 0.517272 -0.035458498 -0.22176546 0.19842854 -0.39357087 0.25673822 -0.4896667 -0.16440266 -0.1967731 0.17017773 -0.1177393 0.37894678 0.40735403 -0.027936712 0.12840573 0.09724505 -0.026981069 -0.035379212 0.017797623 -0.7863545 0.15158997 -0.03331574 -0.25670236 -0.21730667 -0.26886767 -0.117391944 0.5053225 0.34292603 0.21424986 -0.09378158 -0.04638985 -0.48828575 0.32090852 0.016887503 0.1237007 0.074837275 -0.10205932 0.1877228 0.5900052 -0.17511843 0.0032464145 -0.32169607 0.018235262 0.12275522 0.17805135 -0.43002594 0.23295045 -0.07309889 0.6417772 0.09307648 -0.28168187 0.06867792 0.1484584 0.42025313 0.2032484 0.16768268 0.51062167 0.11719666 -0.57751733 0.33321986 -0.12985013 0.1415444 0.1158381 0.04425913 -0.23104884 -0.26860344 -0.47980997 0.003750758 0.0553556 -0.24414672 0.05252697 0.5484794 -0.5020827 0.36379132 -0.2613245 0.21056345 0.18185887 -0.084635176 -0.11425043 0.07717406
s 0.034777086 0.04827517 0.066022605 0.04397043 0.21397413 0.049628783 -0.23069221 -0.2811655 -0.19885954 0.17369528 -0.11565033 0.664586 0.099338785 -0.26827618 -0.1035053 0.20113215 -0.16922964 -0.034271426 -0.020655055 0.33512735 -0.39091495 0.06756414 -0.66736937 -0.02014806 0.16760385 0.066201754 -0.111453384 -0.0921205 -0.24326327 -0.44833332 -0.022376692 -0.32983425 -0.11744479 -0.04449675 -0.084569305 0.23908503 -0.48663586 -0.26480943 -0.10536156 -0.18993637 0.37330845 0.04567 -0.08635559 -0.07481122 -0.011904328 0.22224697 -0.12871584 0.22131625 0.45619094 -0.21042946 0.00515755 -0.03638502 -0.09088417 -0.39216682 -0.44369516 -0.025386153 -0.15754302 0.43940032 -0.12811178 0.25044245 0.3938982 0.4085468 -0.121974014 -0.4388782 0.2447152 -0.12695222 -0.26635763 -0.015928632 -0.50931567 -0.16058244 0.31827518 0.2657975 0.030332267 -0.20406184 0.21855146 0.18389653 0.09611351 -0.03130951 0.10811303 0.2073094 0.24830689 0.06374125 -0.1837524 -0.08403919 0.35820255 -0.039737742 -0.21370502 0.28224906 -0.5202135 -0.04413939 0.34545764 0.40034047 -0.11421599 -0.10519454 0.08014513 0.056898735 -0.004004365 0.10741827 0.36511308 0.3774112 0.48898694 -0.30721724 0.13471626 -0.05731602 0.41690338 0.10743721 -0.264486 -0.1647272 -0.14527345 0.37961578 0.040920537 0.5280047 -0.01894702 0.50534993 -0.092509344 0.09797797 -0.21213095 -0.032851983 -0.26162553 0.40183446 0.5096555 -0.03402454 -0.21915701 0.19569796 -0.3843441 0.24813226 -0.48408043 -0.16220726 -0.18977696 0.16742696 -0.111159384 0.36813325 0.39975786 -0.021012088 0.12368125 0.09310333 -0.026380772 -0.037561134 0.01471905 -0.76593924 0.15358388 -0.030531755 -0.25033024 -0.20880732 -0.2635288 -0.115709096 0.49398622 0.32969046 0.20841523 -0.087262034 -0.044505764 -0.4737622 0.31372228 0.015915146 0.12103992 0.069899715 -0.10120117 0.18395646 0.57820004 -0.16948012 0.0016697526 -0.31438854 0.018646153 0.11795292 0.17556164 -0.4205308 0.22418036 -0.07148246 0.62838936 0.089111306 -0.27645707 0.06730304 0.1431263 0.40868047 0.20132776 0.1663688 0.49524227 0.11310728 -0.56515306 0.32380685 -0.12958612 0.13886374 0.11237937 0.04679185 -0.226036 -0.26346764 -0.4690021 0.005710169 0.05397805 -0.23801447 0.04903427 0.54054344 -0.49104637 0.350481 -0.25700212 0.20300324 0.18166023 -0.08354048 -0.11329635 0.077697806
by 0.032080255 0.040262345 0.06417344 0.041462254 0.19593996 0.0465744 -0.21454106 -0.2659635 -0.1889969 0.164949 -0.10934237 0.6205904 0.09408967 -0.25279367 -0.09309327 0.19053908 -0.16148616 -0.03373884 -0.012779859 0.31351212 -0.37110937 0.0620631 -0.62744707 -0.021945812 0.1584217 0.059862528 -0.10355408 -0.08494688 -0.23248617 -0.42099354 -0.021957515 -0.31124276 -0.10902693 -0.037155494 -0.082786694 0.22363032 -0.45200944 -0.25040576 -0.101635985 -0.17775847 0.34646794 0.04462079 -0.083711624 -0.06943674 -0.011655032 0.20714109 -0.12129473 0.2071182 0.42506823 -0.19151334 0.003858755 -0.030964114 -0.08547489 -0.36529395 -0.41637108 -0.022743924 -0.1469882 0.41168898 -0.11919236 0.23408642 0.3679753 0.38299897 -0.112487145 -0.40615502 0.22190493 -0.1174367 -0.25231144 -0.013879183 -0.47282463 -0.14821582 0.2954025 0.24761704 0.029410271 -0.18714465 0.2035124 0.1714044 0.085544065 -0.030083857 0.102069885 0.19506368 0.23543106 0.057477087 -0.17484017 -0.07874475 0.33177945 -0.038278308 -0.20195329 0.26621348 -0.4850808 -0.0380754 0.32302743 0.3761808 -0.10856246 -0.101513624 0.07611898 0.057143312 -0.00490991 0.098724395 0.33745113 0.34976956 0.45448545 -0.2848176 0.12062865 -0.049855065 0.3843637 0.10218534 -0.24564628 -0.1568739 -0.13382672 0.34771553 0.035215374 0.48736766 -0.019511094 0.47059208 -0.08471011 0.09347472 -0.20075093 -0.030846875 -0.24627395 0.37804145 0.47496828 -0.032876093 -0.2026694 0.18185408 -0.35842314 0.23270635 -0.44353902 -0.14838202 -0.17919585 0.1547158 -0.10409786 0.34321302 0.3751092 -0.02458316 0.118349075 0.08523668 -0.022330396 -0.033492938 0.013740694 -0.7164139 0.1401254 -0.02986701 -0.23603943 -0.19674692 -0.24776219 -0.10515298 0.46202707 0.31188026 0.19199724 -0.08739496 -0.04236734 -0.4420576 0.29482776 0.014675274 0.11700161 0.06894633 -0.09359551 0.1706978 0.543902 -0.15571848 0.002512575 -0.29137328 0.01807503 0.110624425 0.16022865 -0.39557993 0.20770593 -0.066772744 0.58237153 0.08021232 -0.25792283 0.060523298 0.13149832 0.38137144 0.18689947 0.15177855 0.46692434 0.10280363 -0.52381784 0.3058046 -0.11836581 0.1292864 0.10705274 0.04135391 -0.21211411 -0.2450793 -0.4401864 0.0059351763 0.04824752 -0.2264552 0.04812874 0.50113636 -0.4543753 0.32955813 -0.24171819 0.18631165 0.16484408 -0.0760602 -0.1032138 0.069937706
at 0.03703274 0.046313334 0.066910475 0.047738463 0.21252173 0.05512217 -0.23395266 -0.28760126 -0.20558538 0.1777295 -0.11949037 0.67663825 0.09951194 -0.27095482 -0.10021271 0.20723043 -0.17206454 -0.03564656 -0.0213212 0.34055597 -0.39742294 0.07146227 -0.67496127 -0.022185296 0.17104372 0.06542723 -0.11318467 -0.0940986 -0.24640086 -0.4509256 -0.025339799 -0.3355906 -0.11488399 -0.042799413 -0.08632755 0.24052398 -0.48994237 -0.26889005 -0.10509388 -0.19537205 0.37118286 0.049605902 -0.084284924 -0.073679864 -0.014626789 0.22438207 -0.13064763 0.22487383 0.45833725 -0.20768149 0.00064603536 -0.032575473 -0.092521384 -0.39514112 -0.4478766 -0.02938866 -0.15909584 0.43845916 -0.13077264 0.25188217 0.39732945 0.40908056 -0.120223366 -0.43662086 0.2455677 -0.13035338 -0.2709389 -0.015179804 -0.5101716 -0.16410127 0.31737056 0.2628174 0.029182868 -0.20279181 0.21727388 0.18395482 0.09801041 -0.031385638 0.11049092 0.2083943 0.24850237 0.062168654 -0.18531476 -0.083146706 0.35909393 -0.043618277 -0.21528064 0.28199023 -0.51973593 -0.042114973 0.34857145 0.40171954 -0.11499215 -0.10569453 0.08039787 0.055161934 -0.00078294444 0.11159211 0.3703519 0.3761471 0.49151656 -0.3032319 0.13689859 -0.055733472 0.41642606 0.10660261 -0.26308778 -0.16961454 -0.14581601 0.37597242 0.038695738 0.52621996 -0.019560404 0.5089824 -0.09180246 0.09801336 -0.2160103 -0.03043517 -0.26337758 0.40270957 0.5081453 -0.037413135 -0.2219998 0.19536436 -0.3843135 0.24947034 -0.48249793 -0.16358367 -0.19096763 0.16917497 -0.11194049 0.37324154 0.39939824 -0.022809643 0.123378344 0.091408096 -0.027124587 -0.03616324 0.017226547 -0.77623284 0.15510093 -0.035246577 -0.25550327 -0.21506785 -0.2683603 -0.112593494 0.49454752 0.33607662 0.21116813 -0.09374946 -0.045713447 -0.4790746 0.31149608 0.018615816 0.12489172 0.07033965 -0.10090793 0.18206295 0.58478695 -0.17161466 0.0007085382 -0.3188267 0.017542453 0.1211295 0.17632307 -0.42222613 0.2245248 -0.0700589 0.629722 0.093205206 -0.277494 0.06606629 0.14410627 0.41014603 0.20314696 0.16272204 0.50068396 0.11279656 -0.5643683 0.32653007 -0.1260889 0.13501947 0.1165985 0.045413584 -0.23017491 -0.2636351 -0.47071004 0.00088459597 0.05522696 -0.24159455 0.05282202 0.5424626 -0.49289823 0.35199475 -0.25353736 0.20554957 0.18264039 -0.08104979 -0.11485604 0.07405312
his 0.03185619 0.044663887 0.060071286 0.0436228 0.20364952 0.052928735 -0.22168218 -0.27217653 -0.19562483 0.17276523 -0.11410894 0.6379202 0.0928948 -0.25683853 -0.09620138 0.19195028 -0.16603534 -0.029562423 -0.017475797 0.31950662 -0.37917948 0.065285936 -0.6388816 -0.020623354 0.16093346 0.06310571 -0.10551465 -0.08531338 -0.23316114 -0.42677635 -0.020918725 -0.31483808 -0.11300078 -0.04305583 -0.084796876 0.22946607 -0.45683202 -0.25124738 -0.10381205 -0.18764874 0.3557355 0.044800602 -0.08336299 -0.0675066 -0.011903451 0.21156497 -0.122040614 0.20941798 0.4315287 -0.19539969 0.0011189937 -0.03064716 -0.08462164 -0.36980486 -0.42332003 -0.029528916 -0.1482851 0.42200255 -0.12264249 0.23791546 0.3775209 0.39040917 -0.11712181 -0.4174904 0.23052698 -0.11913457 -0.25546297 -0.00955945 -0.4854392 -0.15351835 0.29886416 0.2556742 0.026203511 -0.19721796 0.2021816 0.17507945 0.09098561 -0.032458004 0.10573959 0.19678265 0.23426834 0.05787431 -0.17793174 -0.08015085 0.33999994 -0.040923115 -0.20000917 0.26963723 -0.49284187 -0.0428675 0.3290381 0.38170767 -0.106102295 -0.099820524 0.07453949 0.051660396 0.0006885149 0.10304143 0.35271633 0.35849974 0.46717677 -0.2887647 0.12762009 -0.05126448 0.39889312 0.10537056 -0.25227892 -0.15739517 -0.13392733 0.36003017 0.035862383 0.50416905 -0.019335644 0.48308194 -0.08922139 0.0920582 -0.19883604 -0.03254877 -0.24656226 0.38176575 0.48288596 -0.035973765 -0.20669544 0.1874015 -0.36711925 0.2365332 -0.46033838 -0.15279579 -0.18250622 0.16228478 -0.10546563 0.35391298 0.38218018 -0.02058621 0.11850873 0.09129151 -0.026586536 -0.037167627 0.015544543 -0.73391634 0.14387836 -0.027938059 -0.24007842 -0.20372225 -0.25841397 -0.1147025 0.47248945 0.31875154 0.19719645 -0.084813334 -0.039891988 -0.44921827 0.29498482 0.017667126 0.11251628 0.0699247 -0.096044235 0.17714447 0.5517025 -0.16392784 0.0023236293 -0.30185843 0.01916726 0.11323961 0.1704412 -0.40625286 0.21496427 -0.06583577 0.60152465 0.08853887 -0.26390585 0.065312155 0.1345188 0.39262068 0.19197066 0.16161714 0.48028567 0.10693624 -0.5381852 0.3073215 -0.12411277 0.13081841 0.10475545 0.041682657 -0.22036262 -0.24916184 -0.44814223 0.0016012102 0.052371997 -0.23049074 0.044923015 0.5178399 -0.47042635 0.33722827 -0.24202639 0.19335163 0.17420846 -0.08000249 -0.10846519 0.072693944
from 0.03500153 0.045756355 0.06087134 0.04090512 0.19704372 0.048116043 -0.21476415 -0.26275858 -0.18692943 0.16315015 -0.10677385 0.617305 0.08979108 -0.2518306 -0.09471421 0.18912387 -0.1569662 -0.029947493 -0.01775058 0.31099835 -0.36453348 0.06175062 -0.61891425 -0.018816255 0.15264092 0.058887027 -0.10009348 -0.08136051 -0.22901623 -0.4155645 -0.019240899 -0.30823418 -0.10913624 -0.038022272 -0.079615496 0.2201885 -0.45135555 -0.24480961 -0.095788024 -0.17599577 0.3401116 0.04244629 -0.07947971 -0.06758878 -0.0129440455 0.20728593 -0.1239438 0.20676486 0.42067188 -0.19278063 0.0012271398 -0.030860757 -0.08758337 -0.36709964 -0.4095746 -0.020916933 -0.14714566 0.41127786 -0.117853746 0.23264617 0.3689932 0.37489468 -0.11423665 -0.40369228 0.22465219 -0.12077133 -0.24730325 -0.014745219 -0.46944344 -0.14719447 0.29073346 0.24131306 0.026641188 -0.18824439 0.20409125 0.16738728 0.08827488 -0.02984472 0.10221631 0.19427891 0.23184367 0.056611564 -0.16965055 -0.081263416 0.33195543 -0.038975418 -0.20192821 0.26259094 -0.48282287 -0.037045345 0.32246393 0.3694784 -0.10910196 -0.100048505 0.07277363 0.05528976 -0.0027569635 0.09743976 0.33854386 0.3473622 0.45478615 -0.28096622 0.11961235 -0.05444135 0.38958356 0.09774574 -0.24230164 -0.15092978 -0.135437 0.34735715 0.036360934 0.48699608 -0.015353835 0.4715374 -0.08527723 0.091761135 -0.20130235 -0.031822093 -0.24284579 0.37528703 0.46799397 -0.029920522 -0.20653671 0.17881845 -0.3558508 0.22972274 -0.44407573 -0.1506214 -0.1715644 0.1570268 -0.10299446 0.346748 0.36777952 -0.022509756 0.1166749 0.08784081 -0.026174566 -0.031298775 0.014648504 -0.71470773 0.1382299 -0.028637484 -0.2326784 -0.19787489 -0.24506131 -0.10375311 0.454535 0.30747536 0.19372234 -0.08900505 -0.04272696 -0.44463918 0.29096535 0.011979898 0.11727682 0.0673923 -0.09301835 0.1698765 0.5387461 -0.156673 0.0042707073 -0.29386285 0.01569249 0.11067833 0.16214253 -0.39206114 0.21141896 -0.06278435 0.5807708 0.0808144 -0.258749 0.06212039 0.13622636 0.37844473 0.18630163 0.15299024 0.45900917 0.10537575 -0.52422816 0.30071017 -0.11450993 0.12844823 0.109107055 0.04282502 -0.21200691 -0.24419938 -0.43978986 -5.706186e-05 0.04977917 -0.22510114 0.043530203 0.50168514 -0.4519398 0.33001742 -0.23404512 0.19287442 0.16776961 -0.07745222 -0.10699991 0.071165
that 0.031891234 0.04128825 0.057132557 0.040082958 0.18372495 0.044285677 -0.20511223 -0.24747892 -0.17726606 0.15862863 -0.10180136 0.58584565 0.086317696 -0.23703913 -0.092106156 0.17677262 -0.15052617 -0.032438397 -0.011804515 0.2945456 -0.34699816 0.055414144 -0.5877263 -0.02166354 0.14742278 0.06087015 -0.09473614 -0.08345911 -0.21697076 -0.39535347 -0.016210929 -0.29075748 -0.10769994 -0.031663038 -0.07663107 0.20669156 -0.42619976 -0.22823907 -0.09102508 -0.16536161 0.32461572 0.03892914 -0.07841611 -0.06583903 -0.011677918 0.19478591 -0.11680914 0.19162494 0.39527822 -0.18060996 0.0016640209 -0.030494766 -0.085093185 -0.350558 -0.38629046 -0.01979726 -0.13827519 0.38585123 -0.11403386 0.21340178 0.34871325 0.3561595 -0.110993005 -0.3843036 0.20532145 -0.11659557 -0.2370963 -0.016444124 -0.4430291 -0.14086647 0.27303055 0.22696798 0.029689621 -0.17501885 0.1940603 0.1566122 0.08307249 -0.030056465 0.095296055 0.17903651 0.22256061 0.05717334 -0.16045246 -0.07242527 0.3092422 -0.031025534 -0.18929139 0.25096542 -0.45692268 -0.03974599 0.30713663 0.3519566 -0.10237387 -0.09525536 0.06531599 0.056163855 -0.0006236315 0.093892574 0.32021996 0.3259263 0.42804283 -0.27132115 0.11150815 -0.050187293 0.361867 0.09694476 -0.23109663 -0.1491475 -0.13075638 0.32761174 0.038180303 0.46123087 -0.012641226 0.44137755 -0.07954152 0.08783558 -0.19134669 -0.032812044 -0.23250301 0.3562328 0.44393227 -0.028485915 -0.18959257 0.16536747 -0.33715475 0.22191516 -0.4187285 -0.14375642 -0.16344626 0.1444843 -0.09692458 0.32672837 0.35153803 -0.023967188 0.10901013 0.08137751 -0.021820981 -0.031673584 0.015374398 -0.6712319 0.12812929 -0.029461551 -0.22060066 -0.18178318 -0.22953317 -0.09575038 0.43450463 0.2911849 0.18321696 -0.07753058 -0.04181383 -0.41860005 0.28056604 0.013179459 0.11036677 0.06084848 -0.08863441 0.16187842 0.5037304 -0.1470385 0.0010434994 -0.2761752 0.020613974 0.106607355 0.15153751 -0.37233287 0.19823292 -0.057948872 0.5476825 0.07438821 -0.2435772 0.051957857 0.12564434 0.36448506 0.17010944 0.14097361 0.43306628 0.1010567 -0.49374047 0.2873035 -0.11019639 0.120630406 0.102802075 0.037389632 -0.20191364 -0.22997256 -0.4095739 0.0064982683 0.043254808 -0.2126387 0.040454496 0.4707349 -0.4294218 0.31278697 -0.2238904 0.17659585 0.15981707 -0.070285276 -0.101347014 0.06386506
it 0.027762339 0.038007133 0.050953448 0.03251714 0.16295415 0.039706763 -0.18404189 -0.2211446 -0.16042732 0.13708298 -0.09131278 0.5236381 0.07581397 -0.21227016 -0.07903184 0.15662174 -0.13386065 -0.030110892 -0.011818086 0.2640878 -0.30988392 0.0528376 -0.52565426 -0.016695427 0.13150427 0.053774502 -0.08165565 -0.07541953 -0.19396691 -0.35610682 -0.014374377 -0.25924647 -0.09566534 -0.0266019 -0.07062469 0.18966088 -0.3815446 -0.20859782 -0.08026558 -0.14761667 0.28920248 0.0372116 -0.067439675 -0.058459345 -0.010172973 0.17642476 -0.10441779 0.17238286 0.35728106 -0.16390796 0.0009224 -0.024679365 -0.07536627 -0.3104769 -0.35125014 -0.017179519 -0.121320084 0.3520576 -0.10133773 0.19446127 0.31222707 0.32206264 -0.09955101 -0.34246722 0.18324032 -0.10200455 -0.21301238 -0.014783297 -0.39777845 -0.12682019 0.25113258 0.20445688 0.0248605 -0.153959 0.17474683 0.14446689 0.07148103 -0.026064789 0.0813037 0.1614383 0.19809312 0.050971054 -0.14521338 -0.06873385 0.28053313 -0.03163473 -0.16977917 0.2216669 -0.40957853 -0.03463451 0.2721674 0.3166081 -0.097079195 -0.08770611 0.06181556 0.048715506 -0.0016873656 0.082791634 0.28549734 0.29717857 0.38442633 -0.24110594 0.10240182 -0.047737088 0.32938367 0.08591422 -0.20869532 -0.13415176 -0.11936076 0.297206 0.029853497 0.41432264 -0.010055064 0.39828485 -0.073120214 0.079400636 -0.1748321 -0.030394033 -0.21039347 0.3185209 0.3979764 -0.027076185 -0.17107695 0.14787367 -0.30235475 0.19906425 -0.37365434 -0.12660116 -0.14798638 0.1333046 -0.08859783 0.29493093 0.31708223 -0.021744784 0.09915114 0.07565075 -0.020541525 -0.027703881 0.01578629 -0.60371226 0.11372491 -0.023212414 -0.19894238 -0.16332139 -0.20580164 -0.08462124 0.38988855 0.2610863 0.16547918 -0.07155131 -0.036007676 -0.37762833 0.25071937 0.009479918 0.100798555 0.052727167 -0.077203736 0.14420746 0.4527044 -0.12755506 0.0008483769 -0.24996233 0.013991178 0.091554366 0.1370413 -0.33336508 0.17731288 -0.05460126 0.49244884 0.06679506 -0.21975796 0.048809238 0.11361487 0.32817754 0.15702103 0.12812795 0.38935006 0.09051725 -0.44633237 0.25396782 -0.10001778 0.108250305 0.09490005 0.033019878 -0.18053879 -0.20752965 -0.37187403 0.0037430648 0.040985804 -0.19039534 0.0405885 0.42292836 -0.38541466 0.28256205 -0.19964494 0.15896745 0.13896435 -0.06640436 -0.090269044 0.058149423
this 0.034204017 0.040562782 0.059340116 0.03719089 0.18760572 0.04666488 -0.20402344 -0.2469677 -0.17922582 0.15909843 -0.10273787 0.5806288 0.08462242 -0.2390829 -0.092867166 0.17822549 -0.1511965 -0.029595409 -0.013336686 0.29327312 -0.34926808 0.057581104 -0.5887252 -0.020630384 0.14427443 0.058364574 -0.09603245 -0.08425555 -0.2151089 -0.395598 -0.014792675 -0.29187524 -0.106919006 -0.030993063 -0.07777027 0.21027474 -0.4259983 -0.23213223 -0.09253716 -0.16639608 0.32410452 0.04165286 -0.07641816 -0.06712735 -0.008916195 0.19357137 -0.11493238 0.194771 0.39836493 -0.18026897 0.0061450712 -0.026388915 -0.08148463 -0.34589323 -0.39084485 -0.017716484 -0.13923955 0.3896776 -0.113990925 0.21555187 0.35027245 0.35402244 -0.10578283 -0.38517118 0.20811838 -0.116171904 -0.23770684 -0.016825445 -0.44434226 -0.1396346 0.2775265 0.22635937 0.027809383 -0.17206573 0.1938031 0.15936 0.079321094 -0.025400402 0.09190361 0.18282883 0.2239401 0.057783876 -0.16368636 -0.073282525 0.31317875 -0.032073293 -0.19156483 0.25096112 -0.45843711 -0.0390269 0.30755225 0.35437962 -0.10434797 -0.09446761 0.070145965 0.053936955 -0.0022814213 0.0970773 0.32015276 0.33119032 0.42913854 -0.27195793 0.11361326 -0.04914755 0.36621812 0.09343103 -0.22957064 -0.14565821 -0.13355851 0.3276191 0.038754392 0.4586186 -0.012490844 0.4426372 -0.07814665 0.090006374 -0.1935866 -0.029113859 -0.23255108 0.358697 0.44553712 -0.031197144 -0.18966985 0.16744319 -0.33720148 0.21759912 -0.41774514 -0.1452292 -0.16511916 0.14813219 -0.09941651 0.3252517 0.3521844 -0.02135437 0.11255723 0.08306977 -0.020247633 -0.032139897 0.013518806 -0.67043084 0.130695 -0.02825117 -0.22078487 -0.18558736 -0.232719 -0.09579899 0.43719676 0.2930101 0.18524961 -0.07940901 -0.041665025 -0.42207623 0.27724627 0.012160638 0.11177837 0.0610615 -0.08800757 0.15998857 0.50540245 -0.1446861 0.00062302145 -0.2778859 0.019112624 0.102628395 0.15564264 -0.37268433 0.19835792 -0.058291882 0.5490802 0.07367267 -0.24219596 0.056937575 0.1231844 0.36613485 0.17295586 0.14106508 0.4390282 0.09894354 -0.49532393 0.28440425 -0.11005988 0.11652178 0.100224376 0.04148997 -0.20342113 -0.22835618 -0.41260865 0.002309717 0.048788723 -0.21097966 0.046240896 0.46955281 -0.43097004 0.31580767 -0.22508843 0.17929329 0.1546905 -0.07132737 -0.09974886 0.06451715
which 0.029164618 0.04119827 0.055726845 0.039911233 0.18112648 0.045926116 -0.19934648 -0.24014285 -0.17105487 0.1539704 -0.09904143 0.5698424 0.08324866 -0.23311259 -0.086681634 0.17490186 -0.14659856 -0.03049479 -0.016394857 0.2843149 -0.33835176 0.058862966 -0.5678948 -0.018717187 0.1440878 0.058057647 -0.094339095 -0.076032765 -0.20962553 -0.38076872 -0.01677017 -0.28301692 -0.1007354 -0.035567775 -0.0720696 0.20544581 -0.4110515 -0.22459032 -0.08844555 -0.15953879 0.31587493 0.03709855 -0.072248764 -0.061307468 -0.01303238 0.18917269 -0.11220852 0.19021626 0.38364282 -0.17793006 0.0051191514 -0.025946066 -0.07988352 -0.33350694 -0.37756988 -0.019775853 -0.13331744 0.37392503 -0.108962394 0.21010804 0.33575156 0.3449996 -0.10619966 -0.37517926 0.20478751 -0.10831506 -0.23173095 -0.015816895 -0.428302 -0.13814881 0.2662826 0.22275048 0.024991883 -0.170098 0.18420385 0.15675606 0.07890559 -0.026132265 0.092479184 0.17456095 0.21240546 0.054373626 -0.15467717 -0.0718223 0.3018321 -0.0332979 -0.18405633 0.23797719 -0.4427062 -0.03633257 0.29754972 0.3412181 -0.10170952 -0.09067091 0.069247395 0.048918445 -0.00040016984 0.09089578 0.3121425 0.31976256 0.41714677 -0.2603732 0.110726856 -0.045538932 0.35346255 0.092361 -0.22217609 -0.1440464 -0.12570277 0.31671256 0.0345033 0.44697133 -0.012220664 0.43050477 -0.07943768 0.08582099 -0.18536676 -0.030229837 -0.22195102 0.340909 0.42956752 -0.030624004 -0.18753678 0.16273771 -0.3264323 0.21075502 -0.40947443 -0.14123884 -0.16102701 0.14237347 -0.09703951 0.31779042 0.33960426 -0.021030685 0.105435714 0.0814926 -0.021539235 -0.027093932 0.017493835 -0.65648764 0.1259876 -0.028784277 -0.21614227 -0.1819234 -0.22499 -0.09640561 0.422264 0.28194824 0.17944624 -0.07663974 -0.03977765 -0.40855473 0.26723814 0.015733484 0.106044106 0.058604654 -0.083285466 0.15402275 0.49467042 -0.14451705 0.0041656103 -0.27071717 0.01419629 0.100318946 0.14731367 -0.35925767 0.1934903 -0.06057661 0.53488606 0.07499788 -0.23573408 0.056719564 0.123421706 0.35078424 0.16782066 0.13761738 0.42362925 0.099781014 -0.4828093 0.27401558 -0.10946561 0.11591473 0.09676505 0.036571316 -0.19678374 -0.22462973 -0.39794576 2.7833346e-05 0.046047274 -0.20329894 0.041813426 0.46137527 -0.41940412 0.30240867 -0.21736252 0.17526254 0.15321963 -0.06894086 -0.0997747 0.06508742
an 0.037552048 0.047770347 0.067633934 0.043925084 0.21212026 0.049361076 -0.23191321 -0.28421286 -0.20699348 0.18115036 -0.11976093 0.67291534 0.09988681 -0.27356437 -0.10138964 0.20412658 -0.17413487 -0.033715066 -0.016787944 0.33599278 -0.40187716 0.06793993 -0.67620933 -0.02370435 0.17144515 0.066256136 -0.111698024 -0.09491707 -0.25027543 -0.45335874 -0.02329569 -0.3337577 -0.12112576 -0.038720634 -0.08761255 0.23886831 -0.48659983 -0.26707917 -0.1068181 -0.19203752 0.3719119 0.045343958 -0.090313084 -0.075796396 -0.01303637 0.22183637 -0.13282278 0.22217967 0.4572738 -0.20990962 0.005633963 -0.03348929 -0.0950886 -0.39296407 -0.4454379 -0.021259604 -0.15539932 0.4456561 -0.13234301 0.24839292 0.3963031 0.4084178 -0.12085232 -0.4369013 0.23846403 -0.13095023 -0.26978204 -0.015748318 -0.5090277 -0.16507053 0.31891918 0.26191142 0.02851024 -0.20081718 0.21695516 0.18217319 0.09466631 -0.03322409 0.109409384 0.20468396 0.25256962 0.06371579 -0.18542963 -0.08260169 0.35650173 -0.042274 -0.21631074 0.28595492 -0.52263874 -0.04519959 0.3500784 0.4033868 -0.11931052 -0.1087266 0.08082721 0.061722044 -0.0013435436 0.11113428 0.36647624 0.37608737 0.49051428 -0.3077769 0.1324165 -0.05726513 0.41893712 0.1112156 -0.26368162 -0.16683644 -0.14836907 0.37868288 0.042620946 0.5251671 -0.018724434 0.5088889 -0.09225795 0.09803497 -0.21570566 -0.03383415 -0.26612362 0.40609452 0.5087891 -0.03584006 -0.22139102 0.1933164 -0.38591498 0.24797171 -0.48315254 -0.16262633 -0.19036175 0.1708415 -0.113658726 0.37206957 0.4008892 -0.023934364 0.12671246 0.095547736 -0.02438138 -0.032849193 0.014790942 -0.77076006 0.14912435 -0.032835003 -0.2515963 -0.21174775 -0.2683311 -0.11096947 0.49606007 0.3336233 0.20797369 -0.090702035 -0.046865292 -0.4814948 0.31826484 0.016495796 0.12126042 0.074510284 -0.09912 0.1826435 0.58162147 -0.16780566 -0.00092726934 -0.31490427 0.019846274 0.120706774 0.1742186 -0.4286392 0.22945341 -0.07175546 0.6301177 0.09016476 -0.27959886 0.062732615 0.14130811 0.41338876 0.20289755 0.16184632 0.50229025 0.11619587 -0.5695015 0.32847446 -0.12808391 0.13880587 0.11635791 0.04718373 -0.23265158 -0.2654817 -0.473204 0.005776279 0.052823547 -0.2432795 0.05028458 0.5421903 -0.49426085 0.35685083 -0.2585157 0.20310672 0.18115589 -0.081821315 -0.11715982 0.07397456
are 0.03465381 0.042086143 0.06319512 0.040218942 0.19798808 0.047678463 -0.22159263 -0.26978257 -0.18448769 0.16868395 -0.102721944 0.62003917 0.09230761 -0.2564982 -0.09512413 0.19092263 -0.15990928 -0.031607743 -0.010977556 0.31350455 -0.36885244 0.06267978 -0.62514603 -0.020503981 0.15569042 0.06570078 -0.102585204 -0.08611406 -0.2331711 -0.4203196 -0.0188074 -0.3073766 -0.10930427 -0.02874997 -0.08033121 0.22264521 -0.45781982 -0.24653655 -0.09451153 -0.17276914 0.3433669 0.04616999 -0.08808772 -0.068314604 -0.008435127 0.21000573 -0.12697457 0.21075858 0.4200358 -0.1972315 0.0019457706 -0.03273701 -0.0899448 -0.37611607 -0.41917434 -0.02096131 -0.14714125 0.4157877 -0.12006558 0.22818816 0.3707008 0.37596092 -0.117570475 -0.4090796 0.21649902 -0.12615141 -0.25164458 -0.0146750165 -0.47182256 -0.14691448 0.2919811 0.2461345 0.034604367 -0.18425691 0.20480251 0.17235209 0.08903812 -0.027172554 0.09889932 0.19382823 0.2384797 0.058152672 -0.17474963 -0.07811169 0.33590096 -0.031387605 -0.2059809 0.26355612 -0.48758638 -0.040663745 0.3285749 0.37221056 -0.113215655 -0.099816166 0.073321916 0.062993586 -0.0049348813 0.100892775 0.33872974 0.35428247 0.45219246 -0.2910988 0.11647519 -0.055616025 0.38858822 0.10146402 -0.24567643 -0.15592545 -0.1437214 0.35225368 0.03909106 0.49353686 -0.017354514 0.47000456 -0.08570994 0.09324741 -0.20477714 -0.030713657 -0.24662964 0.3853217 0.47427514 -0.031763494 -0.20297503 0.17974839 -0.3647149 0.23769899 -0.4427916 -0.15474963 -0.17348427 0.15571769 -0.10814349 0.35127577 0.3737394 -0.023801055 0.121417 0.087820746 -0.024882076 -0.029458469 0.0159405 -0.71595526 0.13582839 -0.030690294 -0.23751867 -0.19786195 -0.2477419 -0.1034123 0.4640653 0.31512606 0.19651274 -0.08459013 -0.04653644 -0.45350218 0.300772 0.008915287 0.11956115 0.06676514 -0.08929953 0.17320882 0.5458056 -0.15694326 -0.00019360843 -0.2950195 0.02201313 0.1111662 0.16273056 -0.39463532 0.21557857 -0.064413734 0.58518803 0.0787051 -0.2655891 0.057950333 0.13023107 0.38816318 0.18551028 0.14924403 0.46308228 0.10638315 -0.5315623 0.306493 -0.11435232 0.12322582 0.111931086 0.043171488 -0.21129891 -0.24600874 -0.44173312 0.0043785344 0.05009131 -0.2275666 0.0445723 0.49714857 -0.4588974 0.3351964 -0.2420819 0.1957315 0.16930741 -0.07423377 -0.10779759 0.06882069
after 0.03395355 0.044530757 0.069103085 0.044912014 0.21450992 0.055638295 -0.23339471 -0.2911163 -0.20760892 0.18221088 -0.119393855 0.6779053 0.09830453 -0.27487242 -0.10059794 0.20560053 -0.17134142 -0.03169075 -0.017105779 0.34058702 -0.40195248 0.06869423 -0.6777832 -0.023615733 0.17153077 0.0664575 -0.111070946 -0.09247013 -0.24684599 -0.4543329 -0.024387239 -0.33322173 -0.11724616 -0.044843305 -0.08744309 0.24065097 -0.48920983 -0.26459348 -0.109650835 -0.19352007 0.37512654 0.047034044 -0.08567437 -0.0752483 -0.012169438 0.22427383 -0.12976995 0.22160754 0.45462316 -0.20844853 0.0029556805 -0.030794526 -0.09068411 -0.39761615 -0.4435932 -0.027563553 -0.15652046 0.4467146 -0.13406314 0.250571 0.4016519 0.41440773 -0.12396787 -0.43932536 0.24436224 -0.12737665 -0.270284 -0.0123932455 -0.511733 -0.16351314 0.31682453 0.26485363 0.02612067 -0.20710355 0.21536493 0.18428941 0.09645016 -0.033341404 0.107263744 0.20449021 0.25267553 0.0643009 -0.18707213 -0.084385 0.35731858 -0.040569287 -0.21302724 0.28418005 -0.5218214 -0.044080477 0.35295177 0.40430394 -0.11440037 -0.1052416 0.08071269 0.05819053 -0.0048076278 0.111976326 0.36961025 0.38036618 0.49334216 -0.3055657 0.13831782 -0.05716432 0.42023033 0.106619 -0.2640931 -0.16821334 -0.14548951 0.3771504 0.04089511 0.5312968 -0.01750611 0.50879586 -0.09409072 0.10132452 -0.21519564 -0.033955447 -0.26255998 0.4035919 0.51369137 -0.036759105 -0.2187587 0.19457611 -0.38607156 0.25298217 -0.48408672 -0.16066457 -0.19167146 0.1680579 -0.11676228 0.37302494 0.40546232 -0.021364331 0.12604861 0.09414433 -0.026959727 -0.034396116 0.015283293 -0.7750378 0.15213095 -0.033425406 -0.25495717 -0.21359815 -0.27054933 -0.11677116 0.49891436 0.33799526 0.20846234 -0.09330218 -0.04472509 -0.47972086 0.31204405 0.018652895 0.12400915 0.07424508 -0.100849636 0.18385306 0.5874278 -0.17205672 0.00073698256 -0.31754994 0.020159801 0.11816844 0.17960002 -0.42817047 0.22990152 -0.071754545 0.6330707 0.092790745 -0.28082794 0.06721007 0.1430306 0.41597268 0.20219296 0.16659859 0.506053 0.11532117 -0.5693049 0.32793564 -0.1298499 0.13817541 0.115472436 0.045644213 -0.23049147 -0.26541814 -0.47504354 0.0055577015 0.055908307 -0.2410647 0.05330334 0.54818064 -0.49313065 0.3565911 -0.25845084 0.206044 0.18244357 -0.08290849 -0.11846383 0.07503091
first 0.02977953 0.038369536 0.054874532 0.036304805 0.18343043 0.047848564 -0.19653599 -0.24333578 -0.17287078 0.15127653 -0.10035856 0.5731183 0.08376465 -0.23036306 -0.08675768 0.17283928 -0.14838149 -0.028787022 -0.017406879 0.28776184 -0.33819848 0.058733378 -0.5737023 -0.020841232 0.14327349 0.05679991 -0.09711052 -0.07616423 -0.21288015 -0.38466665 -0.021784276 -0.28650415 -0.09872809 -0.03467862 -0.07409393 0.20571414 -0.41673285 -0.22832279 -0.08960544 -0.16659212 0.3208656 0.037577868 -0.072905004 -0.062333137 -0.014054175 0.18871516 -0.11143064 0.18943155 0.38969424 -0.1765823 0.0012944854 -0.030154403 -0.07720886 -0.3358524 -0.38174486 -0.02190124 -0.13488598 0.37931046 -0.11091824 0.21119411 0.33823478 0.34857652 -0.10231654 -0.3736344 0.2082705 -0.112160355 -0.23086327 -0.015221554 -0.43655837 -0.13894993 0.2727333 0.22794299 0.025467988 -0.1757649 0.18511342 0.15891504 0.081671506 -0.02550257 0.0897994 0.1776283 0.2142923 0.055069577 -0.1560385 -0.07166135 0.30311942 -0.03432643 -0.1830427 0.24499641 -0.444846 -0.038641404 0.29666668 0.3464469 -0.10085345 -0.09038506 0.06907527 0.049287777 0.0006093493 0.095497824 0.31271464 0.3198954 0.4164103 -0.25997162 0.11601739 -0.044786155 0.35995317 0.09022164 -0.22707285 -0.14212896 -0.12579837 0.3220302 0.0333836 0.45178357 -0.014350966 0.435563 -0.07686517 0.0863131 -0.18635544 -0.026764661 -0.2262349 0.34701696 0.43744612 -0.02863626 -0.19002345 0.16871198 -0.3254992 0.21056515 -0.41347763 -0.13861005 -0.16245195 0.14296731 -0.09895913 0.3169039 0.3408821 -0.02278807 0.10597063 0.078247845 -0.021691082 -0.030492267 0.016065288 -0.6624486 0.12814622 -0.02556613 -0.21549395 -0.18233657 -0.22691952 -0.099353716 0.42147553 0.28259814 0.17609075 -0.07742134 -0.03955902 -0.40946597 0.26782906 0.012724686 0.10352128 0.059861697 -0.08354282 0.15914114 0.49753824 -0.14731893 -0.0010710639 -0.272278 0.017848836 0.10287097 0.14761227 -0.36546224 0.19090274 -0.060270257 0.53939116 0.07894488 -0.23538563 0.057963956 0.12003022 0.35062456 0.17288874 0.14255534 0.43123755 0.0982163 -0.4849194 0.27630606 -0.11191454 0.1170711 0.097043104 0.03841826 -0.19464439 -0.22365364 -0.40632445 0.00362621 0.045975443 -0.20727879 0.042349152 0.46634632 -0.41831937 0.30237547 -0.22240074 0.17200653 0.1520295 -0.07342787 -0.09920376 0.06402946
were 0.041322265 0.049872667 0.069699794 0.047198206 0.2285067 0.05801499 -0.24637675 -0.3020025 -0.2117927 0.18780233 -0.124993466 0.7074649 0.10304134 -0.2856139 -0.10516511 0.21438293 -0.17993905 -0.03547346 -0.014515326 0.35600406 -0.41405803 0.06703153 -0.70388305 -0.023219481 0.17767803 0.071433075 -0.11588061 -0.097402185 -0.2571741 -0.4712774 -0.026363958 -0.345172 -0.12396265 -0.039438613 -0.09528441 0.24906172 -0.51150787 -0.27946407 -0.10686352 -0.20234084 0.38943776 0.04503949 -0.0940889 -0.0776334 -0.013795512 0.23667158 -0.13652219 0.23043199 0.47866547 -0.22209848 0.0030167664 -0.03553844 -0.09555993 -0.41376808 -0.46944815 -0.02410652 -0.16597159 0.46531397 -0.13368335 0.26097193 0.41983336 0.42860344 -0.1307455 -0.4613396 0.252719 -0.13113315 -0.2812452 -0.016785098 -0.5353825 -0.16975623 0.33197662 0.2772077 0.029731883 -0.21495983 0.23024222 0.19472635 0.10064215 -0.031122908 0.116054684 0.22036134 0.26325175 0.06321922 -0.19246379 -0.08661659 0.37893662 -0.043269627 -0.22939856 0.29658067 -0.5483275 -0.04020907 0.36672416 0.41954923 -0.124852985 -0.111624904 0.08087554 0.06682492 -0.007124856 0.113794066 0.38334942 0.39537603 0.5138262 -0.32495213 0.13985346 -0.05666908 0.4402561 0.11594184 -0.27685022 -0.17501782 -0.15412177 0.39909568 0.044426918 0.55446494 -0.022159033 0.53267264 -0.09406738 0.10616879 -0.22781962 -0.032010995 -0.27876508 0.42959225 0.5329995 -0.03315213 -0.22960679 0.20642982 -0.40532604 0.26088917 -0.5013421 -0.17522259 -0.20179284 0.18180245 -0.12334476 0.39274603 0.42415765 -0.026205994 0.13104033 0.09676872 -0.029426113 -0.036678225 0.016749281 -0.81323403 0.15640074 -0.0321369 -0.26547238 -0.22174704 -0.27908087 -0.12199858 0.5195318 0.356461 0.21828312 -0.094629645 -0.04840551 -0.50566083 0.32959512 0.016417645 0.1312042 0.07302896 -0.10607817 0.19138677 0.61594665 -0.17785493 0.0048292237 -0.33606797 0.02078918 0.1242729 0.18297431 -0.44764182 0.24178898 -0.07238241 0.6644832 0.09276418 -0.29394495 0.06852855 0.15105021 0.43376455 0.20936112 0.1748077 0.5297174 0.12189084 -0.59764564 0.34559777 -0.13496777 0.14685503 0.12242966 0.045128543 -0.23868334 -0.27642268 -0.49962446 0.002076855 0.055612322 -0.25377697 0.053206466 0.57006097 -0.5195696 0.3776242 -0.27007508 0.21843126 0.18813741 -0.08477352 -0.122322366 0.08224107
or 0.036289204 0.039598607 0.06069519 0.042990044 0.19677846 0.046829723 -0.21878906 -0.26594123 -0.1903109 0.16916719 -0.10425613 0.62736076 0.08893089 -0.25532752 -0.09578387 0.19094123 -0.16272874 -0.03524955 -0.010777977 0.3181254 -0.3717653 0.06218203 -0.62749684 -0.021141948 0.15500678 0.06421364 -0.10173576 -0.090616025 -0.23182023 -0.42692208 -0.020219367 -0.31069565 -0.1117007 -0.02810097 -0.08085666 0.22806685 -0.45711756 -0.24576834 -0.09505112 -0.1771696 0.34664392 0.04640282 -0.09050302 -0.06893979 -0.014147457 0.21013479 -0.12703477 0.20848712 0.42588896 -0.19433011 0.0050435443 -0.032857034 -0.09018413 -0.37659717 -0.41906786 -0.017423354 -0.14546902 0.41932377 -0.116800055 0.23104122 0.3735885 0.3780853 -0.117840365 -0.4072423 0.21833877 -0.12496264 -0.2532157 -0.015570368 -0.47558895 -0.14860871 0.29793555 0.24853744 0.028579311 -0.18338469 0.20764627 0.16699626 0.08395785 -0.027763076 0.10268168 0.19316804 0.23647098 0.061359424 -0.17641535 -0.082911626 0.33353812 -0.033490784 -0.20638366 0.26769683 -0.49053538 -0.039667103 0.32432076 0.37587154 -0.11152388 -0.098395765 0.07163151 0.064169504 -0.00430013 0.10300073 0.34169772 0.35744405 0.4537685 -0.29228073 0.118155375 -0.057386138 0.3908052 0.10590225 -0.24497972 -0.15478447 -0.14068857 0.34814999 0.041713707 0.4890038 -0.014518081 0.47111666 -0.0813521 0.09144443 -0.20939706 -0.031220404 -0.25079754 0.38462695 0.47692552 -0.030428126 -0.2059275 0.17563526 -0.3610069 0.23644376 -0.44442782 -0.15468341 -0.17579806 0.1570287 -0.10797914 0.34979358 0.3741822 -0.0200486 0.12122524 0.090668835 -0.020675162 -0.030291818 0.017000861 -0.7202608 0.14270176 -0.028642496 -0.24057971 -0.19775449 -0.24646969 -0.10552686 0.4636015 0.31436017 0.19782363 -0.08831128 -0.045690924 -0.4517509 0.29855394 0.011027285 0.11584704 0.06520123 -0.09212331 0.17664887 0.5444101 -0.15139748 0.00044938762 -0.29820585 0.020933626 0.11036648 0.16658701 -0.3983289 0.21462654 -0.06293522 0.5809869 0.07996451 -0.26248804 0.055622183 0.13024847 0.38897792 0.18334834 0.14760414 0.4687121 0.10818216 -0.5300125 0.30973163 -0.11546499 0.12416591 0.11361422 0.043008067 -0.21584055 -0.24933037 -0.44237953 0.007757044 0.050381888 -0.22388087 0.045000304 0.49865592 -0.46162745 0.33595747 -0.24374947 0.19390275 0.16708198 -0.07720983 -0.10673519 0.07158452
be 0.031911112 0.04269475 0.059140068 0.038776934 0.19469362 0.04386679 -0.21185468 -0.26473126 -0.18850517 0.1655144 -0.10573455 0.61807424 0.090033226 -0.2537397 -0.09197472 0.18975906 -0.15740521 -0.032606207 -0.011900638 0.3115833 -0.36777765 0.06366651 -0.6193141 -0.020721246 0.1549423 0.05982086 -0.10046196 -0.08413906 -0.22833888 -0.41674912 -0.017571911 -0.30602428 -0.11109258 -0.03447108 -0.07957126 0.22225569 -0.44829983 -0.2449139 -0.093431 -0.17333563 0.33774793 0.042585764 -0.08686938 -0.06604118 -0.013401717 0.2041996 -0.121419504 0.20229053 0.4150001 -0.19280156 0.0048618894 -0.031838935 -0.08640194 -0.3681142 -0.40920815 -0.019174553 -0.14488925 0.41179034 -0.11995113 0.22676979 0.36834288 0.3730825 -0.11572159 -0.40359962 0.21403591 -0.1222241 -0.24793792 -0.017166695 -0.4636369 -0.14741609 0.29220453 0.24443015 0.030493531 -0.18568082 0.2021766 0.16991201 0.083429724 -0.02811156 0.09636637 0.18617469 0.23155496 0.06068809 -0.16842136 -0.08132468 0.32758936 -0.03325778 -0.20007315 0.26265547 -0.47951004 -0.037399266 0.32373005 0.36894616 -0.11077817 -0.09936181 0.0741465 0.060494337 -0.0030513108 0.101655126 0.3369139 0.35006988 0.45181182 -0.28458393 0.12018665 -0.056217562 0.3844193 0.103304684 -0.23942426 -0.15147544 -0.13776329 0.34300902 0.040183004 0.48185194 -0.0122427875 0.4628391 -0.08564868 0.093614824 -0.20042309 -0.030848471 -0.24495454 0.3749545 0.47013003 -0.031070195 -0.20167436 0.17538513 -0.35230693 0.23344932 -0.440055 -0.15423751 -0.1753316 0.15445563 -0.107124396 0.34259677 0.3692827 -0.024124684 0.11900266 0.08508502 -0.020196544 -0.028080663 0.014670275 -0.710035 0.13446504 -0.0321089 -0.23473409 -0.19208115 -0.240614 -0.100812905 0.45473737 0.30757728 0.19124734 -0.08495209 -0.0419254 -0.44198743 0.29240942 0.010051156 0.112866305 0.065650046 -0.09189057 0.16969636 0.5345643 -0.15050611 -0.0018052716 -0.28914174 0.016667042 0.1095759 0.1607783 -0.3926334 0.20833455 -0.06487487 0.5743997 0.07893962 -0.26001498 0.05636539 0.13064067 0.38177097 0.18041338 0.15087391 0.46054122 0.107651874 -0.5203434 0.30137274 -0.11721172 0.12602168 0.108726665 0.040381104 -0.21277536 -0.24382164 -0.43661734 0.0041695917 0.052055705 -0.22465372 0.043049738 0.49227673 -0.45382062 0.32840535 -0.23697658 0.19153666 0.16351968 -0.07269122 -0.10936965 0.0708964
also 0.034851823 0.03797425 0.056988135 0.039407834 0.18865478 0.047950782 -0.20965932 -0.257755 -0.17975113 0.16202885 -0.106231324 0.5989217 0.089981325 -0.24490456 -0.08985924 0.18276383 -0.15632284 -0.031957965 -0.016348533 0.30345407 -0.356639 0.060550354 -0.5976052 -0.017987797 0.15322562 0.062094238 -0.097924806 -0.08318155 -0.22017013 -0.40321994 -0.016807701 -0.29486644 -0.10732905 -0.03631942 -0.07988288 0.21387644 -0.43123248 -0.2380426 -0.09151613 -0.17062296 0.32767946 0.04080631 -0.07591141 -0.064597495 -0.008982336 0.1988646 -0.1169772 0.19436266 0.4019818 -0.18382786 0.0015178984 -0.03214066 -0.08273736 -0.35469493 -0.39743644 -0.023473188 -0.13920361 0.3961728 -0.11364047 0.22115698 0.35290748 0.36137074 -0.10919065 -0.38949484 0.21548304 -0.116708405 -0.2420384 -0.013424497 -0.45003095 -0.14312434 0.27903172 0.23382755 0.029337233 -0.17907953 0.19389074 0.1628065 0.084030874 -0.029412676 0.09333156 0.18560614 0.22544165 0.05506104 -0.16317752 -0.07803201 0.32074058 -0.033342104 -0.19460617 0.25075296 -0.46305478 -0.038718864 0.31280434 0.35715613 -0.10484549 -0.092331074 0.07067583 0.052718684 -0.005073029 0.09558537 0.32491034 0.33759958 0.4357427 -0.27627808 0.115349606 -0.050458606 0.37268537 0.09596965 -0.23270181 -0.14928742 -0.12951909 0.33477 0.036305822 0.4693449 -0.0149278175 0.4476698 -0.079276316 0.08877131 -0.19451502 -0.031677358 -0.23484957 0.36134842 0.45087728 -0.028174039 -0.19605407 0.16963355 -0.3442914 0.2239719 -0.4264351 -0.14680889 -0.17197286 0.14901237 -0.10352542 0.3318236 0.3574412 -0.021223448 0.11160485 0.0819962 -0.02226393 -0.031873286 0.013786038 -0.6847885 0.13113232 -0.025719702 -0.22438186 -0.18969178 -0.2345523 -0.09973788 0.44277304 0.29709432 0.18535388 -0.081658386 -0.041036446 -0.4277123 0.28098595 0.015691455 0.10961293 0.06564293 -0.090546176 0.16495968 0.5175899 -0.14885555 0.000985124 -0.28428724 0.016380006 0.10827902 0.15351406 -0.3786007 0.20227872 -0.061969865 0.55837667 0.07971937 -0.24503154 0.05485516 0.12603332 0.36690256 0.17903286 0.14547183 0.44490203 0.10175175 -0.50438595 0.2880774 -0.11398109 0.11954245 0.10268659 0.038829662 -0.20355606 -0.23276569 -0.42031994 0.0016810617 0.047301218 -0.21407661 0.042267818 0.48046836 -0.43947405 0.31911883 -0.23085822 0.18456852 0.16303894 -0.07392178 -0.10476315 0.06799009
had 0.032652996 0.038520712 0.05920944 0.03639033 0.18265483 0.04598168 -0.19669193 -0.24589515 -0.17551206 0.15274447 -0.10334765 0.5713314 0.08340704 -0.23255458 -0.08598645 0.17382652 -0.14733368 -0.030939287 -0.011816172 0.28451467 -0.3382103 0.05715724 -0.5692478 -0.019767676 0.14250952 0.05550639 -0.09638824 -0.07568023 -0.21046063 -0.38499528 -0.021422772 -0.2818266 -0.10137801 -0.033838265 -0.0745686 0.20391563 -0.41083556 -0.22413832 -0.08840161 -0.16373299 0.31179377 0.03412548 -0.07329897 -0.062618926 -0.013351133 0.18745285 -0.1124612 0.1856183 0.38714486 -0.1780893 0.0032023129 -0.029545242 -0.08165938 -0.33484393 -0.37733492 -0.023000618 -0.13279599 0.3752062 -0.113470405 0.20992875 0.33784086 0.35014787 -0.10597935 -0.37543172 0.20542014 -0.107596695 -0.23198205 -0.012736682 -0.43204024 -0.13550523 0.27091205 0.22285287 0.026182905 -0.17395002 0.18698007 0.1550811 0.0827502 -0.026758641 0.09199333 0.17830943 0.2105463 0.05237265 -0.15525098 -0.06872588 0.30519518 -0.033524767 -0.18265429 0.24024709 -0.44598946 -0.035231408 0.29697576 0.34034014 -0.09715968 -0.091918275 0.06368231 0.050102428 -0.00530688 0.09091885 0.3156168 0.32166988 0.41734564 -0.26256946 0.116149426 -0.046351634 0.35674092 0.094189346 -0.2244689 -0.14150804 -0.124980405 0.32226682 0.033412762 0.4472516 -0.016542021 0.4299816 -0.08061861 0.083297804 -0.18401672 -0.024834514 -0.22734147 0.34506598 0.4342622 -0.029095327 -0.18350835 0.16676104 -0.3268027 0.21159962 -0.40954706 -0.13768926 -0.16309835 0.14463268 -0.09497421 0.31473872 0.3398425 -0.018445784 0.10466994 0.07921376 -0.02058706 -0.031406593 0.0143307485 -0.6570822 0.12613596 -0.026079139 -0.21746774 -0.1813152 -0.23112756 -0.10116158 0.4235062 0.28594163 0.1787313 -0.076049484 -0.03594619 -0.4092824 0.26768345 0.0138723245 0.10349149 0.06251434 -0.08606826 0.15378316 0.4988528 -0.14494368 0.0029488292 -0.27347797 0.01954445 0.10203271 0.15084411 -0.3611923 0.19231257 -0.056654282 0.5353766 0.07662143 -0.23914549 0.052977998 0.12026321 0.34868646 0.17025906 0.14201042 0.42426714 0.09630166 -0.4854435 0.2760165 -0.11272939 0.119632415 0.097480424 0.039466422 -0.19529295 -0.2224435 -0.39968404 0.00024849648 0.043682348 -0.20454329 0.040775716 0.45927522 -0.42139181 0.30466777 -0.22177856 0.17419407 0.15391573 -0.067414545 -0.10059863 0.06455345
one 0.032698736 0.04064048 0.058212545 0.041211694 0.18520881 0.047377776 -0.20559232 -0.25601837 -0.17836149 0.16158022 -0.10279118 0.5958091 0.08490692 -0.24008761 -0.09156102 0.18084754 -0.15191267 -0.032396726 -0.015102969 0.2988879 -0.35148728 0.05906194 -0.5953957 -0.020800162 0.14780916 0.060123075 -0.094917126 -0.08317865 -0.21736597 -0.40120304 -0.019273352 -0.294858 -0.104368016 -0.036038462 -0.07973085 0.21402988 -0.42879555 -0.23581676 -0.093156055 -0.16770059 0.32866046 0.041591406 -0.077216126 -0.065985814 -0.01243122 0.19564846 -0.11810087 0.19693834 0.40121785 -0.18313034 0.001991859 -0.026572302 -0.080468126 -0.34862584 -0.39476755 -0.021647554 -0.13917983 0.39313737 -0.112240024 0.22028111 0.3495887 0.3598908 -0.11153908 -0.38820967 0.21420547 -0.11710657 -0.24059272 -0.013556832 -0.4502779 -0.14426035 0.28009388 0.23002273 0.029116802 -0.17894003 0.19348492 0.15857233 0.082832165 -0.030128187 0.09628135 0.18417524 0.22068278 0.057878137 -0.1619535 -0.07636695 0.31474635 -0.036629885 -0.19177273 0.25139773 -0.4610479 -0.03954871 0.30785736 0.3575633 -0.10596834 -0.09707484 0.07007593 0.056202613 -0.0033529804 0.09731911 0.32313287 0.3353563 0.43522534 -0.27464232 0.11659651 -0.051380683 0.36861166 0.09634264 -0.23498774 -0.14573362 -0.13148971 0.33193135 0.037328497 0.46375892 -0.015120007 0.44855833 -0.080918685 0.09052555 -0.19544454 -0.027138783 -0.23725218 0.3582256 0.45228904 -0.031132927 -0.19167645 0.16915281 -0.33859754 0.21935955 -0.4270978 -0.14634854 -0.16877887 0.15172967 -0.102268554 0.32724896 0.353228 -0.019983932 0.10827988 0.08145423 -0.023952099 -0.032582656 0.013140827 -0.6825859 0.13026413 -0.029146746 -0.225438 -0.18624406 -0.2363722 -0.10131023 0.43741667 0.29713207 0.18444973 -0.081363164 -0.041805178 -0.42247483 0.28081605 0.011792191 0.107875004 0.06506874 -0.08922859 0.16154227 0.51088405 -0.14686671 0.00034954774 -0.2824118 0.018357918 0.106260724 0.15713297 -0.37776142 0.20208651 -0.061704665 0.55426055 0.0782456 -0.24562846 0.054612856 0.1284568 0.36676165 0.17475657 0.14539172 0.44206306 0.10152444 -0.5029211 0.29149115 -0.1132905 0.12226475 0.102668054 0.04125135 -0.20335862 -0.23313035 -0.4184732 0.0024273363 0.04876107 -0.2166681 0.044069454 0.4772518 -0.43219015 0.31746584 -0.22815236 0.18088387 0.16150545 -0.07265163 -0.10105257 0.06509203
they 0.03241517 0.040186856 0.061755966 0.035624616 0.19131814 0.04678073 -0.20930207 -0.25454593 -0.17645743 0.16030201 -0.09982123 0.589987 0.086009786 -0.23979962 -0.090948045 0.18046789 -0.15230508 -0.032109745 -0.00815936 0.29910505 -0.34871686 0.05603536 -0.5910455 -0.0213983 0.14701489 0.056935117 -0.09406164 -0.083803855 -0.2217578 -0.39927185 -0.022103349 -0.29554847 -0.108220115 -0.02876589 -0.07890021 0.20965183 -0.43238348 -0.23651832 -0.0917165 -0.16868941 0.32436842 0.040889975 -0.07991461 -0.065224096 -0.012479414 0.19706611 -0.12094165 0.19741404 0.40176412 -0.18924372 0.0045417016 -0.026078466 -0.083348244 -0.34881076 -0.39539084 -0.01903943 -0.13592853 0.39251012 -0.111175984 0.22190319 0.35598162 0.3579211 -0.11344147 -0.3865573 0.20739333 -0.11118184 -0.2381485 -0.01272823 -0.4460489 -0.1405177 0.28172043 0.2349557 0.026580283 -0.17507358 0.19584525 0.16166806 0.08483601 -0.026577795 0.09784599 0.18469821 0.22341874 0.05888245 -0.16770142 -0.07568129 0.31831005 -0.03349826 -0.19618435 0.25080281 -0.45929933 -0.036884863 0.30967698 0.35746166 -0.103034705 -0.092168935 0.06967793 0.058110725 -0.0062335194 0.09735243 0.3255541 0.33303082 0.4287818 -0.27743694 0.11278553 -0.051741697 0.37001693 0.0954618 -0.23007108 -0.15024126 -0.13246506 0.33368886 0.041002028 0.46827564 -0.01734664 0.444681 -0.07888519 0.08934192 -0.19073938 -0.026101919 -0.23336323 0.36067468 0.4477456 -0.025558185 -0.19135687 0.1715983 -0.3442934 0.22284542 -0.42001235 -0.14657345 -0.16968526 0.15156646 -0.100189924 0.32706815 0.35385644 -0.018610384 0.113448374 0.079790495 -0.02427981 -0.029649558 0.017807174 -0.6834472 0.13062562 -0.026249906 -0.22514318 -0.18715614 -0.23274566 -0.09889311 0.43924668 0.29938987 0.18653089 -0.078407474 -0.040653948 -0.42666888 0.28325486 0.0090507055 0.111994416 0.06038514 -0.088618696 0.1614568 0.5195597 -0.15156752 -0.0013373885 -0.2832751 0.019184092 0.10382724 0.15460007 -0.37858197 0.20614006 -0.05755801 0.55819947 0.07746614 -0.24803808 0.057210382 0.12552552 0.3677587 0.1765994 0.14531174 0.44002232 0.098479144 -0.5025708 0.29042673 -0.11402313 0.11912174 0.1024819 0.0382749 -0.20546946 -0.23486659 -0.42149407 0.004028361 0.046324436 -0.21544603 0.045642283 0.4721314 -0.43502057 0.32108113 -0.22946528 0.18375312 0.15644069 -0.07128707 -0.10478232 0.06480918
her 0.034043103 0.03879215 0.061357234 0.04437128 0.19524807 0.049507786 -0.20752566 -0.25818574 -0.18812375 0.16146195 -0.10810921 0.6096072 0.091077335 -0.24123558 -0.08791262 0.17996818 -0.15694956 -0.033437308 -0.015887275 0.30530843 -0.36061037 0.06602316 -0.6112401 -0.025956105 0.15771255 0.060304005 -0.10211346 -0.07887876 -0.22697668 -0.40349948 -0.01696169 -0.3034139 -0.10162399 -0.04135446 -0.08099842 0.2169256 -0.43421537 -0.24466069 -0.098560736 -0.17658293 0.33397442 0.041045498 -0.08313406 -0.06872854 -0.016422868 0.19632713 -0.11765424 0.19928211 0.40640655 -0.1882153 0.0036211943 -0.030181477 -0.08316126 -0.35536307 -0.39541134 -0.020083647 -0.13768952 0.3970942 -0.113795295 0.22816654 0.35837853 0.3719427 -0.11235244 -0.39179626 0.22137478 -0.11871638 -0.23990525 -0.010949722 -0.45890963 -0.14594235 0.28877842 0.24125382 0.029888218 -0.18386018 0.19526513 0.16354656 0.08444946 -0.02545142 0.106269516 0.18340917 0.22173975 0.053599287 -0.172292 -0.072213024 0.32491902 -0.035827078 -0.1970771 0.254757 -0.4655094 -0.04269876 0.31315824 0.36049137 -0.09970858 -0.09693385 0.07119607 0.05242126 -0.004163611 0.10031363 0.3325033 0.33861542 0.4452737 -0.27752212 0.120033436 -0.053883757 0.3699586 0.093913525 -0.23947954 -0.15013054 -0.12503141 0.33827347 0.0383986 0.47115916 -0.013791341 0.45442045 -0.082642645 0.0888493 -0.19248655 -0.03228953 -0.2396105 0.3672274 0.46082714 -0.028611183 -0.19601919 0.17944054 -0.34721205 0.22575444 -0.43505612 -0.15133637 -0.17432493 0.15626958 -0.09712374 0.33500668 0.3636475 -0.016184855 0.11632171 0.0805606 -0.02294938 -0.038079903 0.014772888 -0.69658184 0.1392303 -0.02756383 -0.22916655 -0.19704905 -0.2404178 -0.101547025 0.44624954 0.30348122 0.1882019 -0.085972495 -0.040498275 -0.42562875 0.28202298 0.015436529 0.111608535 0.063799314 -0.09228497 0.16365962 0.52679604 -0.15856273 0.0026671672 -0.28551453 0.019957755 0.1057744 0.1659592 -0.38509995 0.2046976 -0.064056925 0.5673012 0.08659987 -0.2514676 0.06126193 0.13275853 0.37136027 0.1817538 0.14604998 0.45345172 0.09741882 -0.5145353 0.30080193 -0.11906121 0.122049116 0.10130642 0.039547615 -0.20787317 -0.23450333 -0.42424926 0.00523933 0.048482254 -0.21717781 0.04449008 0.49055916 -0.44236714 0.31598878 -0.22937068 0.18434739 0.1612796 -0.07116825 -0.09723179 0.07068486
when 0.034855034 0.046708364 0.06495968 0.04716761 0.21455978 0.054878026 -0.23678 -0.29120886 -0.20713215 0.18277171 -0.11742029 0.6806475 0.09763406 -0.27650496 -0.1050526 0.20592877 -0.17492124 -0.036810618 -0.017756008 0.34601858 -0.4042045 0.07024506 -0.68325126 -0.020723883 0.17307897 0.06877854 -0.11475845 -0.09020762 -0.25134972 -0.4547911 -0.023850514 -0.3388672 -0.1223582 -0.04234879 -0.08757217 0.24474287 -0.49234053 -0.2677187 -0.108538486 -0.19360015 0.37617752 0.0468359 -0.0912862 -0.07175298 -0.015255094 0.22794932 -0.13536876 0.2214571 0.45912513 -0.21019061 0.001539194 -0.035414446 -0.09164092 -0.39714792 -0.45132396 -0.02283732 -0.15783858 0.4518583 -0.13311246 0.25107726 0.40361735 0.41583443 -0.12365028 -0.44616833 0.24619249 -0.12918288 -0.27076137 -0.01420393 -0.51216394 -0.16365498 0.32149532 0.26676834 0.032158587 -0.20816013 0.22105555 0.18720002 0.097054504 -0.034448694 0.11084534 0.20579389 0.2520505 0.065420754 -0.1876008 -0.08719844 0.36190528 -0.04076894 -0.21918519 0.28756386 -0.529304 -0.043359138 0.3529319 0.40701777 -0.11617174 -0.109596446 0.08249719 0.06306005 -0.0053291554 0.111107744 0.3711973 0.38264415 0.49567083 -0.31238502 0.13592297 -0.057576824 0.42099684 0.10834845 -0.2660809 -0.1692546 -0.14613394 0.38329518 0.04131615 0.5354663 -0.018987466 0.510176 -0.09325084 0.10192454 -0.21650934 -0.035394024 -0.26970407 0.40871775 0.5137677 -0.032773413 -0.22331282 0.19418879 -0.39077547 0.25384754 -0.48450166 -0.16568804 -0.19604386 0.16942666 -0.11713614 0.37782165 0.40378284 -0.02074281 0.12841177 0.09425122 -0.022923348 -0.037885994 0.019101629 -0.7794622 0.15447725 -0.029259555 -0.25856194 -0.21597813 -0.2711225 -0.118464954 0.5046598 0.33920267 0.21104382 -0.095111296 -0.04494689 -0.4835925 0.3173618 0.018010573 0.123651735 0.07339703 -0.10163602 0.18880801 0.58738333 -0.17518497 0.0014227175 -0.3227316 0.018790912 0.11806699 0.18146445 -0.42893666 0.23257028 -0.070885785 0.63924634 0.09185725 -0.2843342 0.06327667 0.14333959 0.4157147 0.20416728 0.16510545 0.5088467 0.114655934 -0.57196736 0.3308254 -0.12792118 0.13670874 0.11575303 0.044580784 -0.23368815 -0.264291 -0.47623867 0.004275419 0.057084896 -0.24269535 0.04840733 0.5493778 -0.4977558 0.35734445 -0.2604513 0.20790493 0.17937338 -0.084507994 -0.11517595 0.075738594
but 0.032794178 0.043585863 0.061686285 0.042287897 0.2015596 0.052398104 -0.22366746 -0.2712398 -0.1944357 0.17303327 -0.111736044 0.6431651 0.093119174 -0.26075238 -0.09794368 0.19603369 -0.16302106 -0.031900436 -0.015603977 0.3221966 -0.38184217 0.064193815 -0.64376867 -0.024622219 0.16451015 0.06421086 -0.10407205 -0.08668526 -0.23684493 -0.43573216 -0.022488127 -0.3198502 -0.111714035 -0.040480882 -0.08754997 0.22920555 -0.4681405 -0.25638637 -0.10240478 -0.18625042 0.3590378 0.045676112 -0.08773589 -0.0682195 -0.015087187 0.2173456 -0.12722352 0.21324857 0.43946066 -0.19981389 0.00057762995 -0.03271011 -0.09081787 -0.37922993 -0.42698905 -0.0265524 -0.14961208 0.42783362 -0.12567279 0.23977955 0.38541055 0.39583248 -0.11823583 -0.42561254 0.23154749 -0.12299527 -0.2594114 -0.011609535 -0.49355578 -0.15489781 0.30600876 0.25703984 0.027191514 -0.19585879 0.210901 0.17573068 0.08968448 -0.030786179 0.10886458 0.19760883 0.24226575 0.064154655 -0.17893685 -0.084224164 0.3498973 -0.041333754 -0.20810181 0.27742633 -0.5084814 -0.041566513 0.34006417 0.39113075 -0.11296749 -0.10283713 0.07671874 0.057148565 -0.0039400985 0.10524456 0.3562256 0.3648088 0.4783493 -0.29630637 0.13008563 -0.053909402 0.4060782 0.10391924 -0.25405982 -0.16234846 -0.14245377 0.36694083 0.039065782 0.5100829 -0.018097725 0.49261844 -0.08686384 0.098806426 -0.20766816 -0.030536877 -0.2569257 0.39616272 0.492011 -0.035455633 -0.21135041 0.18868056 -0.37491235 0.24079397 -0.46504983 -0.16010521 -0.18829988 0.16224283 -0.10959176 0.36046866 0.39051688 -0.021271031 0.1209455 0.09038808 -0.02292152 -0.03210362 0.01541072 -0.75191265 0.14685087 -0.034273945 -0.24445182 -0.20680627 -0.2581498 -0.10953473 0.48235863 0.32747066 0.20436439 -0.08669322 -0.045840316 -0.4669518 0.30495307 0.01668829 0.11725777 0.06658471 -0.09588137 0.17665638 0.5680773 -0.1652805 0.0028990023 -0.30989903 0.021317068 0.116162665 0.17269468 -0.41121244 0.22298118 -0.06553777 0.6097343 0.088989064 -0.2701947 0.06257373 0.13711466 0.404131 0.19649686 0.16203727 0.48446396 0.11112265 -0.5526565 0.31671023 -0.12491463 0.13366985 0.11514235 0.04447445 -0.2201436 -0.25689775 -0.4587117 0.0061620725 0.05371787 -0.23672098 0.04591062 0.5257527 -0.47872332 0.34351945 -0.25056273 0.20057684 0.17413524 -0.0804523 -0.11267519 0.07446406
has 0.03512542 0.039998405 0.05873259 0.04082191 0.19195974 0.043816313 -0.21147913 -0.2593439 -0.1873848 0.16349979 -0.10496832 0.6081948 0.09043927 -0.2501344 -0.093501225 0.18265575 -0.15348399 -0.03125108 -0.01463254 0.30415753 -0.35857013 0.06163779 -0.6087294 -0.019516231 0.15449362 0.062069748 -0.09811038 -0.087036766 -0.22392614 -0.4058489 -0.0144692715 -0.3011314 -0.11238879 -0.034667846 -0.07947964 0.21638626 -0.43948638 -0.23754346 -0.09367839 -0.16849811 0.3330789 0.038369797 -0.07660584 -0.065785035 -0.009412049 0.19847393 -0.122500785 0.20413114 0.41315126 -0.18268396 0.006999198 -0.030962622 -0.08920601 -0.360071 -0.40347528 -0.022409223 -0.139012 0.40141565 -0.11907483 0.22494984 0.3605714 0.3705458 -0.11517795 -0.4023192 0.21538244 -0.12040315 -0.2477475 -0.013064015 -0.4568197 -0.14309695 0.2854342 0.23547328 0.032442894 -0.17843203 0.20098397 0.16614598 0.083346516 -0.027935311 0.09584599 0.18549845 0.22880504 0.061672658 -0.16723312 -0.07623062 0.32442665 -0.033281405 -0.2005322 0.25644237 -0.47228363 -0.039239552 0.32185212 0.36993638 -0.108602636 -0.09819762 0.068046816 0.054760393 -0.0019413222 0.09792424 0.33332685 0.34256855 0.44737643 -0.28227547 0.117954075 -0.05259224 0.37941822 0.10057885 -0.24259964 -0.1541689 -0.13706379 0.34288847 0.035682872 0.48019525 -0.009960919 0.45914653 -0.08606391 0.09100396 -0.19836801 -0.0277331 -0.24267928 0.37063614 0.4631141 -0.030600866 -0.19648987 0.1728142 -0.35052484 0.22845428 -0.43695262 -0.1457449 -0.17028922 0.15356123 -0.103394 0.33882797 0.36308455 -0.024838118 0.112809375 0.0847244 -0.025339497 -0.033806007 0.01717697 -0.69722265 0.1307329 -0.030936016 -0.22989939 -0.19280675 -0.24267636 -0.10263386 0.45471153 0.30455884 0.18554255 -0.082321666 -0.03902773 -0.43718594 0.29155764 0.011048446 0.11287255 0.0599843 -0.0878939 0.16853566 0.52698326 -0.15298693 0.0026928477 -0.29031765 0.02027999 0.10732465 0.15599288 -0.38567755 0.20958512 -0.061195288 0.5683014 0.073708124 -0.25472605 0.05521447 0.1299267 0.37962478 0.18111664 0.14658587 0.45457545 0.101065196 -0.51685625 0.29567248 -0.1115946 0.12542921 0.10738151 0.039095562 -0.21041393 -0.24010284 -0.42523506 0.00602918 0.047757674 -0.22113794 0.046239518 0.4868165 -0.4465738 0.32428876 -0.2359883 0.18426278 0.16581295 -0.07425106 -0.102581486 0.06766063
she 0.026727136 0.03001231 0.048529882 0.036168326 0.15065143 0.038100924 -0.16209154 -0.20088288 -0.1438374 0.12343411 -0.08193166 0.47006643 0.07154125 -0.18298028 -0.06672891 0.13869198 -0.12080722 -0.026770784 -0.010773601 0.2366332 -0.27636772 0.049222156 -0.46933264 -0.021648278 0.11998068 0.041777387 -0.077998765 -0.061385464 -0.1725805 -0.3127014 -0.017591018 -0.23233113 -0.07732502 -0.03499278 -0.062343825 0.16409406 -0.3296283 -0.18813318 -0.07431099 -0.13426378 0.25346586 0.034261804 -0.060890876 -0.052098546 -0.012303965 0.15084617 -0.08777866 0.15001911 0.3136435 -0.13968071 0.0041502737 -0.023136808 -0.06423766 -0.26790878 -0.30437487 -0.01869773 -0.10719362 0.3043777 -0.09085288 0.17312045 0.27182657 0.285238 -0.08389145 -0.3047479 0.17176273 -0.09246988 -0.18523827 -0.008876225 -0.34984228 -0.111388996 0.22186211 0.1867318 0.022115214 -0.13945484 0.14831696 0.12978947 0.06618789 -0.022392994 0.08259847 0.14467937 0.16957396 0.039554324 -0.13273753 -0.05802782 0.25048584 -0.02784459 -0.15252781 0.1955381 -0.35451597 -0.029624216 0.23763914 0.27930892 -0.07509059 -0.07049767 0.05342591 0.037411284 -0.0059467345 0.07799439 0.25563592 0.25616792 0.34058717 -0.21049736 0.09718395 -0.039482933 0.28620338 0.07201855 -0.18423988 -0.11315814 -0.09490948 0.25893894 0.027494252 0.36374113 -0.014606649 0.34647095 -0.062276397 0.06611987 -0.1459265 -0.020836184 -0.17948681 0.2813333 0.35495895 -0.026181968 -0.14923246 0.13458344 -0.26609445 0.16897416 -0.33455563 -0.11573942 -0.13758858 0.12015742 -0.0776228 0.25855008 0.27992642 -0.011842887 0.087110974 0.059860907 -0.01590005 -0.029606355 0.008070768 -0.53418165 0.10680604 -0.018419635 -0.17175038 -0.15031959 -0.18778023 -0.08038876 0.3430667 0.23237811 0.1404187 -0.06625901 -0.03060496 -0.3236727 0.21661423 0.011649704 0.08489373 0.046638515 -0.070321865 0.12700945 0.40413338 -0.12262789 -0.00036229298 -0.2165066 0.012865134 0.0833045 0.12756778 -0.29326448 0.16086376 -0.047939654 0.43803275 0.066596605 -0.19326814 0.044725224 0.10061077 0.28517252 0.13982737 0.11164458 0.34801865 0.07372991 -0.39176917 0.22839426 -0.091433056 0.092802316 0.07930468 0.027873628 -0.1558401 -0.18181318 -0.32300267 0.0036661166 0.039038308 -0.16740713 0.035447128 0.3750033 -0.33892313 0.2412026 -0.18072318 0.13913085 0.12194318 -0.05488279 -0.07282362 0.054208826
its 0.03732181 0.043437902 0.062294617 0.04017615 0.19992347 0.04905575 -0.22133009 -0.2734725 -0.19720644 0.17109744 -0.109527 0.63717645 0.09396395 -0.25789967 -0.09637876 0.19616784 -0.16214786 -0.033818584 -0.014209664 0.32268265 -0.38009134 0.06269651 -0.6399225 -0.019996429 0.16284603 0.06619825 -0.10629361 -0.0854853 -0.23537588 -0.4321878 -0.018699141 -0.3165792 -0.112154566 -0.035781793 -0.08538755 0.2301305 -0.46220514 -0.25017256 -0.10225857 -0.18249986 0.34990528 0.042963002 -0.082424365 -0.068812944 -0.0110709155 0.20971112 -0.12698138 0.20846693 0.4350788 -0.19751748 0.00096864486 -0.031455275 -0.090626806 -0.3765447 -0.4239177 -0.02209553 -0.14930792 0.42139578 -0.12505014 0.23539329 0.38091156 0.39016694 -0.11643459 -0.4167097 0.23116834 -0.12398675 -0.25478297 -0.017637497 -0.48123187 -0.15737276 0.30283648 0.25124753 0.031314746 -0.19447167 0.20716152 0.17448157 0.09223008 -0.027864773 0.10564248 0.19563775 0.23811407 0.058071148 -0.17509192 -0.07970566 0.34166127 -0.03703681 -0.20723084 0.26990914 -0.49905476 -0.040300135 0.33114484 0.3836858 -0.11195462 -0.1022633 0.07492581 0.05566532 -0.0007964921 0.104924545 0.35053262 0.3580703 0.46869788 -0.29471508 0.12697521 -0.056900047 0.3984097 0.10345195 -0.2524165 -0.16120566 -0.13949664 0.3596523 0.038855378 0.5019912 -0.018122736 0.4824317 -0.08807681 0.09476392 -0.20524834 -0.029940177 -0.2550711 0.38497028 0.48295775 -0.034846928 -0.20925535 0.18063538 -0.36591083 0.23889714 -0.4554939 -0.15523791 -0.18317409 0.16199045 -0.10869716 0.3565786 0.38001615 -0.026370855 0.1180747 0.08812823 -0.021976827 -0.030828167 0.015380181 -0.7342811 0.14466445 -0.03241095 -0.24133314 -0.202617 -0.25199094 -0.10827654 0.4735341 0.3191564 0.20148249 -0.08898833 -0.041993286 -0.45637977 0.3041815 0.013208111 0.118149795 0.067742325 -0.09413949 0.174729 0.55237365 -0.16108276 0.002503155 -0.3035496 0.020112922 0.11427822 0.1686733 -0.4080008 0.21558812 -0.06658017 0.5973608 0.080848284 -0.26299655 0.062247913 0.1360738 0.3951274 0.19086978 0.15517953 0.4756357 0.10908771 -0.54082716 0.31274077 -0.121566 0.12906246 0.11401457 0.045930747 -0.22151008 -0.25421983 -0.45103118 0.0020393394 0.049691778 -0.22679964 0.046912182 0.51672786 -0.4669703 0.3404843 -0.2455396 0.19871469 0.17080171 -0.07713093 -0.108196855 0.07604582
who 0.034548216 0.042333197 0.060413517 0.042069584 0.19213185 0.04770709 -0.20500325 -0.2531535 -0.18241529 0.16205741 -0.10719 0.5987381 0.09018029 -0.24398743 -0.089780815 0.18405293 -0.15196198 -0.029719992 -0.012963705 0.30446625 -0.35635933 0.05709364 -0.60303104 -0.019307429 0.1523823 0.062130947 -0.09841842 -0.08231498 -0.22163233 -0.40103242 -0.021172732 -0.29929414 -0.10787063 -0.040146135 -0.07603446 0.21350642 -0.43128136 -0.23635375 -0.0946226 -0.17277229 0.32923472 0.042794757 -0.077778734 -0.06812988 -0.013667267 0.19800301 -0.11827969 0.19877885 0.40777594 -0.18515663 0.005914702 -0.028486187 -0.081887886 -0.35241258 -0.3986826 -0.02046643 -0.13731182 0.39308393 -0.115446165 0.2229633 0.35374415 0.36380762 -0.107079215 -0.39477354 0.21414836 -0.11340966 -0.2400933 -0.015171431 -0.45128006 -0.14465529 0.2821471 0.23858194 0.02479597 -0.18360913 0.19576207 0.16203824 0.08157707 -0.029205197 0.10037429 0.18684986 0.22531982 0.054118767 -0.16501467 -0.07356933 0.31794646 -0.03496911 -0.19208275 0.2546221 -0.4624463 -0.03576403 0.31302884 0.36092082 -0.100540794 -0.09537506 0.069577 0.052067716 -0.00579138 0.09682877 0.32844976 0.33309376 0.43911916 -0.27305967 0.121196814 -0.05154841 0.36972147 0.09430496 -0.23779118 -0.15149757 -0.12792464 0.3347172 0.038036175 0.46760336 -0.013387644 0.45138243 -0.08447478 0.086322136 -0.19155762 -0.029528327 -0.23475748 0.36261162 0.45657906 -0.03229095 -0.19420935 0.17552651 -0.34544906 0.22113925 -0.42905256 -0.14412948 -0.17050172 0.15086435 -0.10295217 0.33392048 0.35877272 -0.022810277 0.1096049 0.084233984 -0.024345223 -0.033936024 0.014937844 -0.6859339 0.13569105 -0.026664175 -0.22539589 -0.19066054 -0.23689131 -0.10162472 0.44315764 0.2994964 0.18471436 -0.08314405 -0.03924155 -0.42420515 0.28122437 0.014096577 0.11233974 0.06496627 -0.08879156 0.16649032 0.5179317 -0.15028137 0.0002791206 -0.28378144 0.020241812 0.10793789 0.15868992 -0.3788404 0.20193754 -0.062476326 0.55887955 0.079006545 -0.24724776 0.058819912 0.12787873 0.36930248 0.17752254 0.14725424 0.445576 0.097652726 -0.50591296 0.29150075 -0.11848246 0.12383032 0.10074838 0.04062907 -0.20433843 -0.23194204 -0.4193241 0.004779185 0.05041517 -0.21508762 0.044941667 0.48098022 -0.43919182 0.31493264 -0.22733034 0.1834019 0.16249485 -0.07051985 -0.10338267 0.06703736
not 0.034079235 0.04063741 0.05843045 0.037801526 0.1849875 0.042573612 -0.20206824 -0.248077 -0.17397559 0.15622808 -0.09836295 0.5782972 0.08264082 -0.23531656 -0.08671049 0.17493214 -0.1449599 -0.029752081 -0.013073443 0.29142007 -0.3433539 0.056817614 -0.57786983 -0.021714533 0.14676842 0.059274267 -0.0964731 -0.082368866 -0.21758273 -0.3908589 -0.018603152 -0.28842133 -0.10176294 -0.028034586 -0.07750883 0.21042004 -0.42351416 -0.23195279 -0.08725808 -0.16449764 0.32317147 0.041340884 -0.079844154 -0.0644605 -0.011860795 0.19272184 -0.11574372 0.19375838 0.39128116 -0.18371485 0.0026835324 -0.027708933 -0.078688 -0.3460105 -0.38563782 -0.021764014 -0.1343871 0.3870641 -0.1126887 0.21204536 0.344577 0.34994254 -0.1098395 -0.38169006 0.20226564 -0.11480867 -0.23281315 -0.013135879 -0.43678027 -0.13938335 0.27267754 0.22603577 0.028371843 -0.17274646 0.18962769 0.15772833 0.07911432 -0.03006485 0.09132151 0.18052343 0.22033867 0.054435227 -0.16312033 -0.07589134 0.30776036 -0.033422444 -0.18892178 0.24971381 -0.45332557 -0.03756133 0.3035813 0.35078335 -0.099938944 -0.09407858 0.066498205 0.0561214 -0.005046693 0.09213446 0.31635067 0.3257044 0.42365572 -0.26877838 0.11128621 -0.04981846 0.36019278 0.09561742 -0.22536944 -0.14862733 -0.12810633 0.32713765 0.034975953 0.45375237 -0.011150874 0.43842196 -0.078090385 0.08982127 -0.19170523 -0.03125893 -0.22760995 0.3538644 0.44296113 -0.031264123 -0.18719238 0.16561319 -0.33374193 0.2151365 -0.41601038 -0.14500189 -0.16366322 0.1432784 -0.09684476 0.32179302 0.34357905 -0.021787757 0.11144757 0.081614 -0.02273729 -0.029335646 0.013638382 -0.6637038 0.12951994 -0.027598029 -0.21781637 -0.18017732 -0.22898613 -0.09703035 0.43078715 0.29265216 0.18188405 -0.08120305 -0.04223679 -0.41710287 0.27706817 0.00989157 0.10846006 0.059145723 -0.08776637 0.16103797 0.5025179 -0.14322942 0.0024536496 -0.27307913 0.017964952 0.105191074 0.15052734 -0.36962697 0.19924931 -0.06031365 0.54167944 0.07387273 -0.24406043 0.052892942 0.12554911 0.36054945 0.17123908 0.14194976 0.43153864 0.09845821 -0.49062428 0.2815991 -0.11229729 0.115966715 0.09988364 0.03795841 -0.2009482 -0.23124373 -0.41011798 0.0039712647 0.04812888 -0.20991306 0.0449033 0.4657151 -0.4223906 0.3074781 -0.22153842 0.17771956 0.15331626 -0.070244245 -0.09744188 0.06405042
during 0.030077945 0.035589438 0.05395706 0.03634176 0.17953016 0.041390106 -0.19511795 -0.24137616 -0.17026779 0.14686532 -0.09924835 0.56136477 0.08288463 -0.22706258 -0.08268691 0.17076977 -0.1434222 -0.025632657 -0.017753918 0.2843643 -0.33125708 0.053043272 -0.56459326 -0.021111708 0.14297564 0.056574997 -0.09382437 -0.075772226 -0.20372108 -0.37818757 -0.017166225 -0.2764161 -0.09646604 -0.036070857 -0.075075306 0.19958057 -0.4063413 -0.22257283 -0.089161225 -0.16376993 0.31279486 0.03639082 -0.0735289 -0.06480257 -0.014410128 0.1897009 -0.10915859 0.18557276 0.37881726 -0.17443521 0.0051559084 -0.029360771 -0.07887971 -0.33013338 -0.3709605 -0.023227459 -0.13373987 0.3692995 -0.11161976 0.21127278 0.33076113 0.34423468 -0.10022687 -0.36713415 0.20262723 -0.10562369 -0.22575173 -0.013246606 -0.42512307 -0.13498238 0.2630406 0.21965027 0.02380333 -0.17293 0.17984742 0.1543927 0.080363646 -0.02709969 0.089094035 0.1749443 0.20908207 0.05108662 -0.15833934 -0.069953054 0.3014883 -0.034610298 -0.1793895 0.23941481 -0.43493813 -0.035232607 0.29160723 0.33776382 -0.096261606 -0.08753742 0.06938824 0.04910909 -0.0025329269 0.092353955 0.30793735 0.31237075 0.41133776 -0.25484547 0.114284694 -0.043866925 0.35039023 0.09090445 -0.21845199 -0.14294623 -0.12199576 0.31476918 0.037184265 0.44461656 -0.017991135 0.4259084 -0.07462306 0.08605508 -0.17850713 -0.028066084 -0.22285864 0.33746746 0.4271363 -0.02851876 -0.18442988 0.16583632 -0.32330135 0.21009663 -0.4039164 -0.13494115 -0.1631587 0.14145981 -0.09484372 0.3135844 0.33301005 -0.022170924 0.10501771 0.07668324 -0.019779941 -0.027542207 0.014292516 -0.6463025 0.124671675 -0.024213891 -0.21199226 -0.17658502 -0.22546898 -0.09426944 0.41698408 0.27750808 0.1715811 -0.07846324 -0.039441075 -0.4009669 0.26095372 0.015414974 0.10522295 0.061097577 -0.08314144 0.15273197 0.48563313 -0.14409812 -0.0011427725 -0.26570165 0.018018188 0.10173147 0.14546058 -0.3573005 0.18982682 -0.059268966 0.52871096 0.07764396 -0.23475267 0.054340497 0.12191849 0.34555542 0.1670685 0.13918737 0.4225584 0.09430797 -0.47654182 0.27607712 -0.10478376 0.1150348 0.09744201 0.03744666 -0.190403 -0.22110228 -0.39509442 0.0045255935 0.04225424 -0.20257276 0.04156994 0.45488054 -0.4137024 0.29475832 -0.2182114 0.17031753 0.15088072 -0.07021539 -0.09687744 0.0645626
their 0.035248727 0.040409777 0.05860758 0.03866152 0.18547393 0.043271087 -0.20590524 -0.24959181 -0.17755927 0.15558209 -0.10127166 0.58430135 0.085201696 -0.24046507 -0.08984824 0.1759396 -0.14756028 -0.0295563 -0.009405003 0.29646465 -0.3477934 0.05575727 -0.58658564 -0.019737288 0.14516422 0.055429097 -0.09310203 -0.08180638 -0.21816507 -0.39625552 -0.022265952 -0.29010394 -0.10280694 -0.03009838 -0.07966489 0.2090249 -0.42663643 -0.23048468 -0.09144974 -0.16613738 0.32160336 0.036610305 -0.08043624 -0.063776195 -0.011018748 0.19545116 -0.11815682 0.19118403 0.39547685 -0.18028574 0.0028960672 -0.026599746 -0.07875563 -0.34382924 -0.3901857 -0.022436988 -0.13581586 0.38892522 -0.11394777 0.21481137 0.34727567 0.353943 -0.10665637 -0.38140303 0.20814286 -0.10973847 -0.2358248 -0.0108837765 -0.439134 -0.13617179 0.27490455 0.22922264 0.026358774 -0.17570086 0.19284809 0.15661636 0.083444454 -0.02919733 0.09554693 0.18012662 0.22129965 0.055297058 -0.1625346 -0.07498212 0.31262964 -0.03266309 -0.19207796 0.24768695 -0.452127 -0.03463829 0.30140463 0.3486494 -0.10294278 -0.09165786 0.06646881 0.057516895 -0.003393797 0.09344389 0.31891972 0.32513776 0.42382237 -0.2681225 0.112993084 -0.048109524 0.36304662 0.096149504 -0.22667003 -0.1443369 -0.13098636 0.3295655 0.039895963 0.45745692 -0.017346866 0.4375262 -0.07751768 0.08715255 -0.18791436 -0.025823383 -0.22769487 0.35513675 0.44369417 -0.025916532 -0.19031362 0.16944462 -0.33545595 0.21781093 -0.41578165 -0.14401574 -0.16720738 0.14985761 -0.09974088 0.32232583 0.35114557 -0.018559303 0.112579316 0.07901907 -0.020781586 -0.031426262 0.014617104 -0.67450184 0.12891662 -0.029845208 -0.2198672 -0.18533802 -0.23383385 -0.09614322 0.4329817 0.29182532 0.18136965 -0.07815765 -0.037922543 -0.42019853 0.2732202 0.012045964 0.11053295 0.058734518 -0.08901496 0.15780848 0.5081339 -0.14868319 -0.0008758531 -0.2777371 0.016405929 0.105197914 0.15431514 -0.36989698 0.19957237 -0.05790217 0.5461945 0.07733604 -0.246809 0.05411267 0.12193839 0.3614141 0.17294118 0.14233541 0.43547034 0.09935558 -0.4935587 0.28688863 -0.113199234 0.1199608 0.10148384 0.03554126 -0.19931783 -0.2312425 -0.4122818 0.0017156382 0.04486544 -0.2096125 0.046003588 0.46776572 -0.43039834 0.3128465 -0.22248411 0.18016645 0.15725996 -0.07335402 -0.09911954 0.06504539
